../OJ_raw_pkl_small/2/133.pkl,0.3137194 0.33579788 0.7078695 -0.58195037 0.64454705 -0.15262362 -0.6038253 -0.38239065 -1.6781168 -0.3329568 -0.401958 0.3330944 -0.489476 -0.7344428 0.24987543 -0.489707 -0.49856484 0.70946974 -0.9965372 -0.5782654 -0.68103313 -0.53770745 -0.53165656 -0.5879587 0.04194624 1.0671164 -0.57886016 0.88187975 1.6170466 0.0803992 0.8340826 -0.20753722 0.19505145 -0.5984573 -0.13655192 -0.09652174 0.08597285 -0.80025333 -0.5843491 -0.39062878 -0.3822989 0.21523128 -0.6061312 -0.068580404 -0.3648 0.41537422 -0.7255584 0.4195117 1.003857 -0.12445086
../OJ_raw_pkl_small/2/969.pkl,-0.7369361 0.5753743 -0.1911314 -0.64392376 -0.17495345 -0.018571107 -0.7708532 0.13377759 -1.5445378 -1.5741972 0.44090882 0.04210208 0.3066061 -0.6313932 -0.227374 -0.31244996 -0.92059076 -0.024658784 -0.94258994 -1.4173259 -0.9164018 -0.41847295 -0.3972535 -0.92884624 0.49971503 -0.11593737 -0.075213924 -0.0020987792 0.27160242 -0.26798326 0.7583602 -0.12546536 1.7730825 -0.59942675 0.36733449 -0.12982205 1.2326087 -0.73661596 -0.620063 -0.42172801 -0.009928277 -0.37179998 -0.6005111 -0.73083603 -0.5939813 -0.019787626 -0.8693924 0.04735632 0.8776472 0.086977534
../OJ_raw_pkl_small/4/2161.pkl,-0.27565905 0.37611824 0.8895696 -0.71776193 0.67655224 -0.15024869 -0.5549038 -0.84102523 -1.6284912 -0.36864883 -0.6157187 0.14860745 -0.98899776 -0.92151743 0.124512024 -0.4377457 -0.75431466 0.86458206 -1.4593892 -0.20815751 -0.5730351 -0.6496715 -0.51142716 -0.21235718 -0.089649215 1.7624463 -0.6845698 0.81449074 2.0654714 0.3834516 1.2785016 -0.21253753 -0.46837327 -0.70682335 -0.15126081 -0.09067669 0.02531569 -0.8246133 -0.47238776 -0.2785361 -0.52861243 0.73769975 -0.56165344 0.051823143 0.08810018 0.39687008 -0.5865901 0.23576954 1.0571779 -0.19770257
../OJ_raw_pkl_small/2/1089.pkl,0.12455037 -0.14861472 0.45317906 -0.6640955 0.054372977 0.07054368 -0.5635577 -0.53717905 -1.4442579 -0.44401202 -0.33878773 0.12905867 0.17771462 -0.5435322 0.088348255 -0.32502806 -0.616336 0.57450217 -1.0147206 -0.7021311 -0.72405624 -0.28361535 -0.5571746 -0.65933603 -0.22836298 0.02053528 -0.1417375 0.74201894 0.36312976 -0.03334096 0.73712116 -0.17806052 0.5910742 -0.43577436 0.013707506 0.08488038 0.6781714 -0.8376004 -0.524102 -0.261201 -0.0052673146 -0.25347966 -0.39538866 -0.4190978 -0.3970887 0.3821405 -0.59184307 0.309652 0.32399493 0.16044597
../OJ_raw_pkl_small/2/814.pkl,-0.20969324 0.10185451 0.40938342 -0.63821787 0.1499258 -0.0135831805 -0.5104738 -0.39886203 -1.2951199 -0.249603 -0.24219836 0.16919464 -0.2225928 -0.5726407 0.08751184 -0.37115863 -0.5823642 0.5342683 -0.80497885 -0.53102547 -0.7577742 -0.27050442 -0.44443026 -0.55959857 -0.06890267 0.3336131 -0.21002868 0.41520134 0.902368 0.034561493 0.64799875 -0.1525254 -0.03627692 -0.54196936 0.06381279 0.033141717 0.3625578 -0.55788946 -0.49669248 -0.2988903 -0.11010215 -0.08156812 -0.46015403 -0.30072042 -0.41486692 0.1515711 -0.6057346 0.17171992 0.4801386 0.008902494
../OJ_raw_pkl_small/2/1145.pkl,0.6437484 0.55508 0.3938665 -0.6987083 0.5369299 -0.07857675 -0.7009641 -0.339017 -1.9235288 -0.49962124 -0.80113584 0.06854555 -0.63843644 -0.64576185 -0.2015442 -0.53545123 -0.64089453 0.41667727 -1.3002627 -0.66859597 -0.71978307 -0.4958691 -0.476868 -0.62369484 0.025717203 1.5688441 -0.53549296 0.4075962 2.7771704 0.27393115 0.920291 -0.27202982 -0.22605194 -0.7138422 -0.3190557 0.06469804 0.18229488 -0.8659384 -0.5950414 -0.45049724 -0.42379653 0.36462384 -0.49870825 -0.37096736 -0.5056243 0.42414942 -0.7630197 0.48739752 1.1017555 -0.11798901
../OJ_raw_pkl_small/2/1163.pkl,0.28419906 0.42940757 0.70232797 -0.6039617 0.7668612 -0.105517484 -0.5928016 -0.3407423 -1.6822057 -0.41069868 -0.24842031 -0.0067962683 -0.4504344 -0.76422507 0.2651967 -0.5004259 -0.6220667 0.64243823 -1.055395 -0.68750745 -0.65559196 -0.54321784 -0.44183007 -0.7514038 -0.08157809 0.91648 -0.62599665 0.8689374 2.1727128 0.19901644 0.9247352 -0.26788583 -0.009365395 -0.64691126 -0.079274766 -0.087957405 0.22260152 -0.7020728 -0.6172366 -0.38339663 -0.4536966 0.1717779 -0.55828005 -0.12665108 -0.43352684 0.36118343 -0.56857926 0.38098788 1.1941515 -0.1701005
../OJ_raw_pkl_small/5/692.pkl,0.26257247 0.3329764 0.6376095 -0.57334876 0.76372164 -0.1146059 -0.6139508 -0.6263064 -1.3924311 0.31031108 -0.5466701 0.1027665 -0.39438683 -0.71200275 0.5130464 -0.47414023 -0.5079385 1.0420537 -0.99975413 -0.3572708 -0.4559438 -0.27041546 -0.6302551 -0.49755573 -0.23143493 1.047306 -0.45892376 0.89197123 1.707773 0.031588018 0.62261087 -0.29219022 0.02669556 -0.70798254 -0.12063373 -0.13013338 -0.08328318 -0.7004753 -0.601587 -0.1488983 -0.3444526 0.23447196 -0.48399267 -0.29073218 -0.4373687 0.26945543 -0.58235234 0.7482793 0.5141116 -0.11164218
../OJ_raw_pkl_small/5/939.pkl,0.6583679 0.33254692 0.8550211 -0.5953292 0.8573998 -0.26820463 -0.50992316 -0.5430381 -1.5729461 0.3550789 -0.6482396 0.029021867 -0.3873459 -0.7694313 0.6511571 -0.51129377 -0.43395922 1.1413443 -1.0478451 -0.35802606 -0.4859196 -0.45963493 -0.60233 -0.5216394 -0.26252723 1.0864207 -0.6129868 1.0265325 1.8320524 0.19709204 0.912949 -0.2004566 -0.05138548 -0.7339091 -0.20909028 -0.12247029 -0.0639589 -0.73397267 -0.5833466 -0.19189972 -0.52677536 0.22149281 -0.5506352 0.16450801 -0.4731688 0.44258806 -0.66146123 0.6563538 1.1435597 -0.14684185
../OJ_raw_pkl_small/5/680.pkl,0.18321393 -0.026441496 0.73074603 -0.52547616 0.38842392 -0.08512907 -0.43873534 -0.41197693 -1.4538012 0.24192868 -0.5721815 0.23268332 -0.42200214 -0.73089385 0.3749329 -0.34080526 -0.68429756 0.83603525 -0.6621139 -0.32121295 -0.73158866 -0.44624338 -0.57776165 -0.3974408 -0.22086896 0.6319055 -0.3222898 0.7389025 0.24536851 -0.17798956 0.42318186 -0.13833183 -0.070252776 -0.5428917 -0.03686851 -0.16551486 0.07800544 -0.7523733 -0.3128422 -0.2667846 -0.10033366 0.22423573 -0.5117902 0.10998384 -0.24226193 0.37821156 -0.72872156 0.39535484 0.15490505 -0.115982205
../OJ_raw_pkl_small/2/288.pkl,0.154953 0.4963843 0.29104048 -0.6540528 0.4299743 0.026263839 -0.65727586 -0.23536786 -1.6862788 -0.742279 -0.2756801 0.25437546 -0.42086184 -0.7273684 0.1241492 -0.50908756 -0.66139054 0.47825104 -1.0335747 -0.691187 -0.7474984 -0.4556171 -0.46231255 -0.6540669 0.19250208 1.307126 -0.50734067 0.48729336 2.0248628 0.16209318 0.92788893 -0.26273745 0.20411888 -0.68975055 -0.17362405 -0.021553023 0.23474666 -0.49835563 -0.563356 -0.42341787 -0.38538978 0.15647517 -0.5518381 -0.38473225 -0.47446206 0.36455095 -0.7289369 0.39018717 0.964018 -0.09863062
../OJ_raw_pkl_small/5/151.pkl,0.053152405 0.17016141 0.7425207 -0.59359807 0.86421484 -0.20000745 -0.45780903 -0.63078105 -1.223563 0.1624828 -0.59605914 0.058011662 -0.38799438 -0.776928 0.5217615 -0.45540664 -0.5042475 0.88108885 -1.055897 -0.42381412 -0.5370752 -0.43550467 -0.51160514 -0.5803803 -0.2409975 0.6051925 -0.5687055 0.77061844 1.5276648 0.0714615 0.6775495 -0.20568524 -0.27496073 -0.5690683 -0.0328179 -0.17696385 0.105311826 -0.6543528 -0.5717521 -0.2673222 -0.34293923 0.1638889 -0.5604062 0.117139176 -0.24150857 0.3602107 -0.6236721 0.5012107 0.6419257 -0.21450302
../OJ_raw_pkl_small/2/1264.pkl,0.25379136 0.16402473 0.5108975 -0.6612149 0.24371864 -0.11597111 -0.63313156 -0.51809084 -1.7263185 -0.07825492 -0.8261094 0.2731993 -0.4749489 -0.72840285 0.13082965 -0.47577798 -0.63521135 0.63295114 -1.2825723 -0.673432 -0.67265135 -0.4582208 -0.5218616 -0.56903553 -0.09151605 1.0386734 -0.42802045 0.6774887 1.8357565 0.2498741 0.8706707 -0.19545574 -0.1015474 -0.726746 -0.17558503 -0.040746525 0.2346815 -0.85246605 -0.54028255 -0.2725802 -0.44030374 0.25006247 -0.5252533 -0.21139245 -0.4910107 0.551445 -0.6690511 0.31323734 1.072127 -0.13691089
../OJ_raw_pkl_small/5/1153.pkl,0.48516694 0.40797362 0.9570482 -0.56357974 1.1379195 -0.24260303 -0.1755424 -0.5384328 -1.3546644 1.2705684 -0.5719863 -0.20735802 -0.23557316 -0.73688626 1.1707778 -0.46318692 -0.21622856 1.6542003 -0.7767324 -0.08100934 -0.67154694 -0.5877061 -0.6361836 -0.9557458 -0.23037706 1.0957454 -0.5205665 1.1313692 2.2841372 0.16300304 1.0088018 -0.3241094 -0.062897116 -0.6326417 -0.18966918 -0.3058848 -0.30836242 -0.57853216 -0.7402078 -0.06883335 -0.5377457 0.18155795 -0.7187559 -0.11033724 -0.6291196 0.31886062 -0.6494631 0.50100285 0.9699595 -0.34587935
../OJ_raw_pkl_small/5/823.pkl,0.15297355 -0.03046031 0.5508571 -0.5580464 0.5406196 -0.12225719 -0.44173327 -0.3958965 -1.4303349 0.1311938 -0.6486803 0.5111562 -0.20054218 -0.7428041 0.57522106 -0.3623387 -0.3347595 0.64263797 -0.49172193 -0.530563 -0.7719937 -0.39603367 -0.5605453 -0.56351995 -0.2107325 0.27149665 -0.47871011 0.7326833 0.5131254 -0.1285948 0.2901489 -0.1692076 -0.0070649944 -0.25911418 -0.073801056 -0.04301917 0.10956315 -0.8698553 -0.41723028 -0.3850747 -0.22517492 -0.0038200114 -0.5695419 0.15966848 -0.34075063 0.50479484 -0.6332664 0.35149175 0.15339506 -0.19798335
../OJ_raw_pkl_small/6/977.pkl,0.62304527 0.25804818 0.55661976 -0.6962608 0.68807757 0.06832304 -0.6491434 -0.11510895 -1.7593929 -0.2766508 -0.59873295 0.0025907583 -0.29431745 -0.4952392 0.26386112 -0.5121493 -0.37762094 0.57737195 -0.99044865 0.08927327 -0.8349904 -0.49493796 -0.2521255 -0.6768116 -0.13817087 1.2709785 -0.3903006 0.51325315 1.6104617 0.12080552 0.6763255 -0.15873134 0.2658823 -0.51606655 -0.16989626 -0.06054989 0.3720693 -0.5936695 -0.56420314 -0.3219949 -0.31937796 -0.15486322 -0.571386 -0.5280824 -0.5062611 0.30553722 -0.7778136 0.47367227 0.83053964 -0.112959936
../OJ_raw_pkl_small/4/1484.pkl,-0.052505665 0.09479854 0.8325877 -0.60054743 0.23454595 -0.10807687 -0.5190077 -0.673587 -1.518547 0.16876839 -0.5596367 0.035348516 -0.5102803 -0.8978607 0.40253803 -0.3900996 -0.56148833 1.0486481 -1.1789033 -0.5882945 -0.66213334 -0.39003032 -0.5486186 -0.4013176 -0.14628616 0.69399047 -0.47118276 0.78219885 1.4211414 0.22590767 0.96413594 -0.24832593 -0.45624292 -0.7357793 -0.14065224 -0.0030037323 0.09685823 -0.6565682 -0.44761592 -0.07014181 -0.45060828 0.26214707 -0.47244552 -0.039602116 -0.24512243 0.42498344 -0.5701715 0.35351363 0.7238969 -0.024099464
../OJ_raw_pkl_small/6/2888.pkl,0.3136738 0.6499461 0.3412973 -0.81923336 0.94636244 0.04783936 -0.6146523 -0.55912197 -1.6224649 -0.5098121 -0.7247884 0.46906313 -0.59873927 -0.78070796 0.1767872 -0.55191135 -0.46135944 0.43705016 -0.888248 -0.6636169 -0.77352476 -0.59510833 -0.38324854 -0.9595924 -0.16071731 2.34477 -0.6196027 0.6002608 2.917323 0.424426 0.540667 -0.36773467 0.30628705 -0.51952076 -0.41281295 0.021673504 -0.009958455 -0.7411257 -0.6460405 -0.58674496 -0.49599627 0.3319451 -0.67372364 -0.3470482 -0.6362805 0.43997175 -0.6985088 0.3980035 0.8776159 -0.33354145
../OJ_raw_pkl_small/4/2046.pkl,-0.29581937 0.121341184 0.64915115 -0.6195167 0.16240238 -0.045306705 -0.5612283 -0.6151274 -1.7765312 -0.29194263 -0.4547123 -0.16137679 -0.5050135 -0.9514942 0.20410755 -0.45064265 -0.72893655 0.83271945 -1.4714806 -0.9913931 -0.61617047 -0.31054908 -0.5191805 -0.47926977 0.084976315 0.42777562 -0.4864306 0.69843996 1.7344449 0.2922186 1.0638676 -0.23072927 -0.58179724 -0.71433455 -0.22225274 0.1540758 0.20733972 -0.84381455 -0.32929933 -0.16975828 -0.32707366 0.11734673 -0.4010632 -0.2967458 -0.19984235 0.41064593 -0.4933243 0.34987006 1.0059357 0.17713253
../OJ_raw_pkl_small/2/726.pkl,0.6320484 0.31571427 0.6482232 -0.6525803 0.7610337 -0.20958409 -0.52131724 -0.16208804 -1.6704028 0.24524225 -0.428695 0.19739708 -0.42034644 -0.7223403 0.6570223 -0.49130735 -0.1859129 1.1070894 -0.91660917 -0.3822068 -0.8417352 -0.61983776 -0.5540255 -0.9612546 -0.06094203 0.9783909 -0.72747463 1.1920022 1.6550566 0.27393374 0.9981341 -0.32566434 0.7596244 -0.5918595 -0.24075934 -0.21838881 0.108987585 -0.75005096 -0.71841496 -0.3005205 -0.5589998 -0.002032123 -0.87846977 -0.32813704 -0.6168327 0.86166143 -0.8186094 0.60278845 0.817231 -0.33321947
../OJ_raw_pkl_small/2/1083.pkl,0.2320925 0.32684433 0.26669353 -0.47121513 0.36448964 -0.085628904 -0.6076252 0.043446448 -1.7583857 -0.5997403 -0.29268062 0.055983372 0.6443848 -0.69466203 -0.053473704 -0.44835642 -0.82616323 0.4228247 -0.9975682 -0.82214737 -0.81031847 -0.31541806 -0.4220784 -0.97582024 -0.013557592 0.3140675 -0.3887066 0.6391234 0.92541385 -0.24007519 0.6637546 -0.24916941 0.32699838 -0.5893273 0.13416305 -0.06536785 0.4747811 -0.20805368 -0.60928017 -0.19077809 -0.3066054 -0.15849367 -0.47439557 -0.42799914 -0.56881225 0.36724648 -0.78634596 0.364915 0.63220125 0.07673619
../OJ_raw_pkl_small/6/909.pkl,0.90223956 0.3804389 0.2642621 -0.92192036 0.58725464 -0.059838384 -0.7190676 -0.6661878 -1.6069028 -0.9736243 -0.7478895 0.027862145 -0.52155 -0.67603993 -0.12502566 -0.5803276 -0.08945542 0.41558993 -1.2516682 -0.75171226 -0.64579993 -0.57540965 -0.45020616 -1.0504751 -0.34854886 1.9307593 -0.5972331 0.9462803 2.3613217 0.66281414 1.2764537 -0.39896318 0.9058143 -0.49050736 -0.4067079 -0.08441317 0.6684514 -0.7401222 -0.8102686 -0.48477113 -0.46084902 0.078702815 -0.5915126 -0.571848 -0.5192649 0.7369184 -0.8789914 0.49417782 1.2955809 -0.29271755
../OJ_raw_pkl_small/2/1287.pkl,0.34636343 0.25128043 0.6282255 -0.60799474 0.575337 -0.10456784 -0.63802975 -0.4774893 -1.7672467 -0.24747969 -0.6961214 0.055558834 -0.5005011 -0.74162555 0.16881086 -0.46374187 -0.67645514 0.65813917 -1.2284161 -0.6252001 -0.683394 -0.34997758 -0.4774087 -0.74704623 -0.17295773 0.7907298 -0.41246858 0.7191573 1.9384176 0.19436577 0.85492027 -0.24456294 -0.05831403 -0.73357576 -0.21919571 0.038555212 0.19204047 -0.82419175 -0.4734144 -0.3130403 -0.42678696 0.14348398 -0.45349497 -0.1185849 -0.4744356 0.44508684 -0.56437224 0.46584928 1.0289079 -0.04571026
../OJ_raw_pkl_small/2/91.pkl,0.3878241 0.31649366 0.68557376 -0.60733616 0.6303131 -0.100548714 -0.4872008 -0.36205462 -1.705301 0.071530364 -0.5866282 -0.061437335 -0.46123934 -0.7588863 0.35154074 -0.4826932 -0.44879645 0.847901 -1.0353855 -0.42487988 -0.7203114 -0.4839629 -0.5521499 -0.6747335 -0.10289841 0.8443014 -0.3626893 0.61180985 2.1548498 0.3082843 0.78003377 -0.3228916 -0.16696359 -0.69209677 -0.15887181 -0.10150119 0.08143207 -0.73453164 -0.54286265 -0.3206005 -0.38845402 0.10445746 -0.5601397 -0.3456529 -0.45406476 0.36738586 -0.71376956 0.45861876 1.1186924 -0.18166144
../OJ_raw_pkl_small/2/1230.pkl,0.38194916 0.50068814 0.68832964 -0.49286115 0.7499456 -0.09146472 -0.6139636 -0.3875881 -1.732806 -0.3082296 -0.39608142 0.2598665 -0.3974 -0.84582585 0.2401882 -0.48122594 -0.6940909 0.73259455 -0.8848854 -0.65884894 -0.65248567 -0.47725466 -0.4122144 -0.774792 -0.10537861 1.0280157 -0.5315732 0.77870005 1.9698774 0.17738296 0.8865687 -0.25826436 -0.0816781 -0.79417944 -0.17081413 -0.07473284 0.25144348 -0.5840224 -0.61121804 -0.3488435 -0.49939704 0.18631907 -0.5255959 -0.026474461 -0.51651174 0.4327829 -0.6199401 0.44108608 1.0996134 -0.077342935
../OJ_raw_pkl_small/2/85.pkl,1.0585707 0.07126707 0.8321235 -0.45192423 0.9322801 -0.1513288 -0.33260676 -0.2699129 -1.6552088 1.0384678 -0.27299088 -0.08858564 0.04078165 -0.6362988 0.87890655 -0.41632006 -0.5930474 1.4543793 -0.14335473 0.23940878 -0.8364633 -0.547707 -0.52232254 -1.1344404 -0.221149 0.48273262 -0.43836623 1.0289856 0.82448506 -0.13164338 1.0172288 -0.21284351 0.097602814 -0.628391 -0.21436436 -0.30674246 -0.10755941 -0.39169648 -0.67706937 -0.16661131 -0.39812946 -0.026526256 -0.6619456 0.0637328 -0.66618127 0.5273728 -0.78348887 0.6459846 0.71824247 -0.15844235
../OJ_raw_pkl_small/4/830.pkl,0.30641162 0.07242228 1.0949644 -0.57762855 0.17348109 -0.058420073 -0.47857755 -0.45975614 -1.751861 0.3121503 -0.7267207 0.20277539 -0.39665416 -0.85175407 0.6510466 -0.41298097 -0.54690737 1.1157217 -1.4968572 -0.86914265 -0.68427426 -0.380738 -0.6716125 -0.43692857 -0.068499096 -0.3635472 -0.6660053 1.0422028 1.1777947 0.21629085 1.003554 -0.1648442 -0.03300051 -0.6846429 -0.26289696 0.13591993 0.21903858 -1.1611583 -0.55992484 -0.10296317 -0.3895292 -0.13019152 -0.5558355 -0.10591005 -0.37525162 0.6129947 -0.290146 0.32137406 1.0327832 0.073495544
../OJ_raw_pkl_small/2/230.pkl,0.7267962 -0.12793931 1.057746 -0.4319843 0.5432406 -0.10057502 -0.33999565 -0.44012618 -1.5877613 1.1419842 -0.24240182 0.24985579 -0.1485047 -0.69308025 1.0468888 -0.36422473 -0.6214515 1.5963318 -0.47583765 0.20590605 -0.985648 -0.6398559 -0.5981824 -0.9522508 -0.16044779 0.4639628 -0.5781143 1.2722785 0.25413653 0.0068829553 0.9837175 -0.29249063 0.23834981 -0.61798286 -0.13591853 -0.40027583 -0.08820568 -0.37107643 -0.55524445 -0.038921162 -0.4058978 0.029913422 -0.78062814 0.22802776 -0.4695859 0.7486958 -0.7686451 0.38075456 0.7325794 -0.24625501
../OJ_raw_pkl_small/2/236.pkl,0.16152368 0.37084627 0.40293908 -0.6409587 0.62602735 -0.10165176 -0.633652 -0.296659 -1.7386156 -0.46059757 -0.34906772 0.040559582 -0.40838525 -0.7107915 0.07081835 -0.50058365 -0.7949057 0.5381397 -1.0296477 -0.7969052 -0.70274925 -0.48412234 -0.42879432 -0.7998017 -0.06750577 1.1011891 -0.4424351 0.6609724 2.0651069 0.16091137 0.8629727 -0.23833896 0.060129266 -0.7143606 -0.081639126 -0.034672797 0.32386994 -0.5598757 -0.6063808 -0.35279208 -0.36164328 0.11575162 -0.5369671 -0.3253165 -0.57873863 0.44810092 -0.7003738 0.34742633 0.947583 -0.09095307
../OJ_raw_pkl_small/4/1768.pkl,0.38598788 0.043609962 1.2347757 -0.56977475 0.24903198 0.030371992 -0.5013843 -0.63274074 -1.4162486 0.50144535 -0.31776565 0.29028726 -0.43156293 -0.88601285 0.9219623 -0.36608508 -0.6888713 1.2393965 -1.0388654 -0.1145002 -0.6063492 -0.47429326 -0.7057245 -0.4179996 -0.23262915 -0.13297254 -0.48510912 1.0777566 0.5881705 0.1751565 0.898466 -0.18161948 0.02252138 -0.6993074 0.0080756 -0.116141304 0.2171718 -0.7108498 -0.5467644 -0.08925899 -0.3430193 -0.02083806 -0.6289009 0.21564212 -0.15467244 0.5473826 -0.42486495 0.35130477 0.8053711 -0.037031636
../OJ_raw_pkl_small/6/423.pkl,0.8021517 0.18511026 0.7705292 -0.64172333 0.48910588 -0.032235138 -0.59305054 -0.056474138 -1.8971014 -0.40111664 -0.7451223 -0.13516621 -0.35841763 -0.82281256 0.1888008 -0.4492253 -0.21181548 0.54329455 -1.2064292 -0.57057136 -0.8444688 -0.45032054 -0.46210405 -0.5897306 -0.07027023 0.25462803 -0.6155284 0.45277712 1.1678036 0.13069871 0.62850016 -0.19100025 -0.47635925 -0.49322236 -0.14787157 0.15694025 0.5006674 -1.0082824 -0.36819443 -0.43360877 -0.37380958 -0.109848745 -0.5013024 -0.16126147 -0.45516393 0.33074263 -0.5664597 0.28890073 0.78664863 0.032716893
../OJ_raw_pkl_small/5/1123.pkl,0.17851023 0.050982267 0.5794737 -0.6011443 0.64277565 -0.20185804 -0.47624627 -0.5616266 -1.338313 0.34662312 -0.7208668 0.335069 -0.2414019 -0.6731336 0.5150818 -0.43443796 -0.31071848 0.9214301 -0.983203 -0.5122354 -0.64385796 -0.41922775 -0.6165498 -0.4279703 -0.19044329 0.59495103 -0.65025866 1.0296826 1.4211065 0.07342666 0.5156826 -0.21600966 -0.16261478 -0.29898483 -0.145286 -0.055983067 0.028193325 -0.8718762 -0.51695186 -0.23759066 -0.38981164 0.089734465 -0.55698425 -0.097581595 -0.29085636 0.46483472 -0.54181355 0.4839531 0.59845966 -0.20018885
../OJ_raw_pkl_small/2/259.pkl,0.1325504 0.29426807 0.7851301 -0.6815856 0.82541335 -0.071644686 -0.49290535 -0.6435664 -1.6748178 -0.02861354 -0.5372292 -0.050116066 -0.4876164 -0.81541467 0.31543317 -0.50122374 -0.6109758 0.8858228 -1.2299061 -0.64298767 -0.5950931 -0.45696157 -0.4437368 -0.74075925 -0.2202508 1.0269381 -0.46713474 0.80041873 2.5441277 0.35669118 1.0333179 -0.32280135 -0.41812629 -0.71938354 -0.23905276 -0.00389745 0.0948871 -0.70852333 -0.60531205 -0.27480343 -0.48156887 0.17517288 -0.47020462 -0.28216168 -0.40338153 0.34875154 -0.5473168 0.46048564 1.2165769 -0.07727587
../OJ_raw_pkl_small/4/1784.pkl,0.090992406 0.33325937 0.6527395 -0.8654919 0.5076004 -0.17263222 -0.64963156 -0.86086273 -1.5709674 -0.78825635 -0.62310266 -0.070666105 -0.96911687 -0.47410324 -0.17062332 -0.48311025 -0.071165405 0.6323986 -1.4408294 0.025177233 -0.62628174 -0.5933194 -0.50495785 -0.33565292 -0.25254396 2.252711 -0.7273219 0.6500024 2.2857218 0.64404637 1.4769046 -0.36325005 -0.4395955 -0.38823277 -0.26606125 0.016678056 0.10525463 -0.7037277 -0.59994394 -0.3956677 -0.44593346 0.40217298 -0.4017785 -0.31503657 0.40811056 0.29280543 -0.55470103 0.48319134 1.1821891 -0.22269647
../OJ_raw_pkl_small/5/832.pkl,0.43524042 0.32904628 0.67270195 -0.57092893 0.6715042 -0.06231529 -0.5380571 -0.41388223 -1.4971652 0.15634777 -0.6175115 0.0068676625 -0.31431022 -0.6530283 0.35830963 -0.46751666 -0.51578766 0.77361935 -1.0003101 -0.60297245 -0.62066066 -0.31075415 -0.58245325 -0.5014444 -0.2381436 0.785584 -0.3771383 0.64826363 1.6951491 0.08675029 0.5106913 -0.2685085 -0.14938474 -0.6819454 -0.17105523 0.036010176 0.0028282348 -0.6703185 -0.5751079 -0.29906526 -0.24155636 0.038365778 -0.4323656 -0.36166745 -0.4688268 0.22390017 -0.63419926 0.54694515 0.6304898 0.0039478145
../OJ_raw_pkl_small/6/746.pkl,0.58073556 0.5205912 0.34840292 -0.8222022 0.7732992 -0.051439725 -0.59748966 -0.5673685 -1.5565954 -0.59494144 -0.6991794 0.11233539 -0.5775811 -0.7589399 0.050892655 -0.5726966 -0.22605449 0.5652651 -1.0409255 -0.7324815 -0.712469 -0.64268154 -0.38660443 -0.93569344 -0.23853958 2.0075545 -0.5714253 0.7020223 2.603043 0.6158179 0.9885488 -0.36072004 0.4855621 -0.5830276 -0.36267948 -0.12725262 0.25759467 -0.57857305 -0.7061727 -0.46448508 -0.44245967 0.19026043 -0.6737522 -0.45591718 -0.54589736 0.5596809 -0.85695696 0.37860528 1.2645696 -0.31687698
../OJ_raw_pkl_small/1/1969.pkl,1.0123237 0.2793886 0.79131156 -0.6554758 0.42296162 -0.12095349 -0.56640077 -0.31239194 -1.7034249 0.033125173 -0.6199194 -0.34993345 -0.46885622 -0.4848919 0.15715265 -0.45608714 -0.3544019 0.92850447 -1.2548895 -0.4557426 -0.5522583 -0.47046492 -0.61116487 -0.5211674 -0.1326732 0.5318996 -0.50746906 0.70150644 2.0743759 0.072132125 1.0834692 -0.26602036 -0.31043613 -0.5684981 -0.27127698 -0.03443038 0.12566845 -0.8181155 -0.5862769 -0.16588557 -0.41677052 0.035298433 -0.37198257 -0.46391237 -0.26255444 0.19522424 -0.6806615 0.688491 0.93162936 -0.11237027
../OJ_raw_pkl_small/2/1221.pkl,-0.083205596 0.08098641 0.37873694 -0.59675807 0.2568076 -0.01940519 -0.59719867 -0.28395942 -1.5508664 -0.36967453 -0.24658516 0.10995051 -0.27702546 -0.79733235 0.08263053 -0.3956173 -0.6009257 0.5860063 -0.98018926 -0.825269 -0.83762854 -0.35359648 -0.41884348 -0.6894712 -0.0040758345 0.35254222 -0.29798335 0.46859348 1.1437769 -0.054280702 0.78794056 -0.26769632 -0.12165055 -0.64410114 0.026893232 -0.023013331 0.54505944 -0.47624403 -0.47457325 -0.25308055 -0.28279877 -0.08952899 -0.47995722 -0.40669197 -0.46559343 0.30786932 -0.62675655 0.2939955 0.478241 -0.013058808
../OJ_raw_pkl_small/2/834.pkl,-0.19075327 0.3467929 0.49496585 -0.65954775 0.44309995 -0.098098755 -0.58117956 -0.35750556 -1.6929107 -0.48679888 -0.31286192 0.24746871 -0.5400959 -0.7782367 0.08017354 -0.51427597 -0.5326318 0.62144285 -1.1414039 -0.72038203 -0.7628739 -0.54482687 -0.46389517 -0.6552727 0.18054873 1.2972952 -0.5531082 0.6425619 2.0579488 0.24736099 0.91561717 -0.3049812 0.011779596 -0.5862152 -0.13870566 -0.081834234 0.13972914 -0.67297155 -0.52912205 -0.3765673 -0.35089487 0.22757627 -0.6229538 -0.37232667 -0.4207366 0.42713603 -0.73860705 0.2711231 1.0013986 -0.19651337
../OJ_raw_pkl_small/6/2838.pkl,0.38610488 -0.22373345 0.79410714 -0.6777052 0.32915464 0.34028262 -0.61766285 -0.62724894 -1.5421033 -0.0010359572 -0.51969403 1.0275898 -0.48232225 -0.8077894 0.47026962 -0.34291837 -0.7695821 0.68939835 -0.38503608 -0.22548683 -0.850948 -0.4376694 -0.51214135 -0.6959587 -0.28810027 0.47885704 -0.12378782 0.88043344 0.19209366 -0.10006259 0.43676278 -0.20637123 1.0663512 -0.42432287 -0.116872616 -0.15695278 0.14188801 -0.7503511 -0.55418676 -0.35305497 -0.02278459 0.013991425 -0.6520087 -0.10703305 -0.39566544 0.67706424 -0.7342448 0.27400675 0.23909393 -0.19062498
../OJ_raw_pkl_small/2/1326.pkl,0.92114586 0.38324863 0.4834771 -0.5973207 0.4794953 0.22848572 -0.6280985 -0.101940766 -1.8118544 -0.14297813 -0.57752496 0.30664963 -0.1667106 -0.72484285 0.6751119 -0.39462528 -0.8282966 0.5725165 -0.9416721 -0.599945 -0.74761146 -0.42991993 -0.52958405 -0.8185593 -0.12802328 0.8397094 -0.42702162 0.5528206 1.3211459 0.12552278 0.470719 -0.23550963 0.38867414 -0.7097537 -0.06020019 -0.03597243 0.36233193 -0.7965619 -0.5448239 -0.3480861 -0.34719715 0.08221087 -0.5702396 -0.17271233 -0.6391568 0.45082927 -0.49927354 0.32771975 0.8155559 -0.063236274
../OJ_raw_pkl_small/2/315.pkl,0.12620193 0.18476188 0.4544104 -0.7506692 0.5617111 0.038176667 -0.5688753 -0.5233511 -1.7658067 -0.22710116 -0.70491564 0.4299299 -0.5104782 -0.8371829 0.31328937 -0.49892458 -0.48994085 0.700223 -1.0543365 -0.62953913 -0.7300516 -0.61582154 -0.44543174 -0.75309646 -0.10977751 1.4063066 -0.41230306 0.8087891 1.9534329 0.28169683 0.7889358 -0.22466327 0.4561213 -0.5351976 -0.24150635 -0.06441586 0.09113453 -0.864784 -0.58748406 -0.38223696 -0.41068652 0.17911595 -0.67718667 -0.24404126 -0.5045524 0.76467997 -0.72628367 0.2655386 0.9231595 -0.27458647
../OJ_raw_pkl_small/2/35.pkl,-0.1433461 0.32131258 0.24671422 -0.68690884 0.4597299 -0.061228376 -0.61260617 -0.3130673 -1.7220513 -0.4877157 -0.54099065 0.36591488 -0.44020092 -0.82060593 0.075906076 -0.48609018 -0.42774305 0.5167342 -1.1731324 -0.77104247 -0.7478484 -0.55398333 -0.41137958 -0.5713006 0.17585266 1.4031134 -0.4705628 0.58124083 1.9835798 0.25539026 0.7711909 -0.2940232 0.18847224 -0.6322738 -0.12512237 -0.11640404 0.19614689 -0.80251163 -0.53201747 -0.41630843 -0.39075148 0.30350745 -0.6573032 -0.42347264 -0.5638458 0.49162424 -0.79131484 0.2659839 0.8674369 -0.27032724
../OJ_raw_pkl_small/2/1101.pkl,0.64850307 0.39488918 0.52304804 -0.7342806 0.51146054 -0.113448486 -0.575398 -0.41074252 -1.7447759 -0.40151876 -0.81219155 0.0299929 -0.5582463 -0.61620325 0.08139534 -0.54806715 -0.52948534 0.5816193 -1.1941746 -0.45663154 -0.63586736 -0.3700223 -0.4997004 -0.57907844 -0.025513293 1.3178957 -0.48097563 0.60383046 2.401375 0.30933017 0.91942686 -0.22121504 -0.056883 -0.7063771 -0.2913376 0.14446796 0.09464359 -0.8474264 -0.5384669 -0.42162687 -0.40643173 0.25031048 -0.4894201 -0.3017547 -0.5572564 0.30371594 -0.73850405 0.31226695 1.1860224 -0.052238777
../OJ_raw_pkl_small/2/413.pkl,0.15236682 -0.18195994 0.56701386 -0.6649125 0.34433687 0.13678077 -0.5440154 -0.5310022 -1.7180808 -0.10396474 -0.6140675 0.43814597 -0.21353056 -0.7856645 0.35733667 -0.36446917 -0.5255027 0.6888928 -0.7627933 -0.64060855 -0.80087835 -0.33082032 -0.53934336 -0.7236043 -0.16811158 0.27643067 -0.1648681 0.8622737 0.7619196 0.15027888 0.63964826 -0.20707847 0.33401084 -0.38181084 -0.18591982 0.10383822 0.30766532 -1.0328116 -0.47946805 -0.34385484 -0.15868288 -0.089777894 -0.52197057 -0.31676805 -0.38212374 0.7198204 -0.62471396 0.2929269 0.51291245 -0.003569218
../OJ_raw_pkl_small/2/419.pkl,-0.546378 0.61727077 0.022449004 -0.18256998 -0.06576023 -0.027898893 -0.70464444 0.78122324 -1.5694364 -1.0493983 -0.12435672 0.2018657 0.60001314 -0.7311091 -0.09594412 -0.34179977 -0.92599833 0.2649449 -0.65175086 -1.1122973 -0.85395473 -0.46258017 -0.4788718 -0.7036506 0.45658118 0.39651892 -0.10821622 0.02997633 0.6502247 -0.16209403 0.7916686 -0.15410535 0.37899366 -0.6939129 0.3587548 -0.09461572 0.91279787 -0.62384874 -0.6202748 -0.20637488 -0.05164758 -0.22237018 -0.55985636 -0.6172379 -0.58525556 0.057852965 -0.90842247 0.19633602 0.19123767 0.017774252
../OJ_raw_pkl_small/2/30.pkl,-0.75412214 0.27697343 0.011721609 -0.34313476 -0.09241904 -0.040649384 -0.6695657 -0.0024729664 -1.2583694 -1.0863252 0.48018873 0.2061992 1.2382984 -0.7147112 -0.18986458 -0.27201727 -0.5377078 0.14286135 -0.77173287 -1.4099575 -0.8201718 -0.27205777 -0.3168196 -0.889023 0.12355089 -0.49909943 -0.20726494 0.1533166 -0.0047318754 -0.27017114 0.4108301 -0.08819053 0.57955855 -0.29532593 0.56048214 -0.064663365 1.3700895 -0.3379576 -0.59048355 -0.21931006 -0.050654463 -0.46077335 -0.5077424 -0.6416976 -0.12734605 0.09802543 -0.663457 0.33036637 -0.0009200282 0.13933799
../OJ_raw_pkl_small/2/151.pkl,-0.4482785 0.4188725 0.14179403 -0.51926845 0.24483582 -0.0329337 -0.6052728 0.013670534 -1.3551093 -1.0925812 0.34364387 0.1047623 -0.1619402 -0.57229346 -0.14756443 -0.36992502 -0.91789716 0.22504035 -0.64830387 -1.0187696 -0.8752227 -0.34922296 -0.36991423 -0.80815506 0.17091945 0.6158266 -0.328617 0.2741074 0.7536417 0.014683201 0.73936903 -0.20574155 0.2154009 -0.5461107 0.14707601 0.08613751 0.6717516 -0.23753077 -0.5593679 -0.3945598 -0.078603946 -0.20050067 -0.4753678 -0.38104945 -0.4033215 0.12580872 -0.5479734 0.22331521 0.67113817 0.06985585
../OJ_raw_pkl_small/4/1607.pkl,-0.0574545 0.32371187 0.32927763 -0.73819226 0.18782291 -0.049991533 -0.6544263 -0.43055937 -1.690736 -0.9199972 -0.60613316 -0.008426448 -0.83732414 -0.7573242 -0.1588592 -0.57572216 -0.6469912 0.36734155 -1.4640771 -0.5030238 -0.76536554 -0.50074524 -0.38488117 -0.4554808 0.09538171 1.6509501 -0.5232542 0.32260263 1.9152315 0.41916287 0.8594145 -0.26423448 -0.15488698 -0.6483365 -0.21201622 0.0533939 0.16670957 -0.47036576 -0.46796286 -0.42779434 -0.32243893 0.2754417 -0.5549326 -0.26868173 -0.29620644 0.39377105 -0.83298504 0.23109598 0.99395865 -0.12293931
../OJ_raw_pkl_small/1/405.pkl,0.97988594 0.7049379 0.83003193 -0.7073741 0.5313451 -0.09176373 -0.6345506 0.07543163 -2.0148473 -0.87372905 -0.7319582 -0.054704983 -0.5630492 -0.81644 -0.23601393 -0.5251732 -0.7769565 0.24431151 -1.4555098 -0.7796104 -0.59936637 -0.6177421 -0.51608294 -0.5004045 -0.02240107 0.6998872 -0.5791861 0.21768625 3.2514498 -0.047139704 0.92160803 -0.27255955 -0.4531904 -0.6915796 -0.18301463 0.016805429 0.46693978 -1.0184939 -0.5792808 -0.51744884 -0.40352982 0.07599117 -0.49620008 -0.4509968 -0.43177766 0.14299898 -0.750625 0.51985 0.9382671 -0.14257169
../OJ_raw_pkl_small/4/1253.pkl,0.20565517 0.13557975 0.62464064 -0.64998144 0.2616865 -0.018743247 -0.584505 -0.6044902 -1.5389465 -0.32772037 -0.42910844 0.22438687 -0.6814361 -0.7554274 -0.08034427 -0.46695787 -0.6458541 0.73924047 -1.1714054 -0.7492398 -0.8214823 -0.4522202 -0.40944982 -0.52719206 -0.21057592 1.0156316 -0.60070765 0.5410578 1.0185742 0.03324376 0.83541536 -0.20924203 -0.3524361 -0.6489409 -0.2659791 0.009766552 0.18519609 -0.12552351 -0.52028036 -0.3297329 -0.30584294 0.084756136 -0.43562314 -0.25184032 0.04774481 0.54945636 -0.8807208 0.583999 0.56141794 0.0099263545
../OJ_raw_pkl_small/1/1294.pkl,1.048583 0.27583656 0.57054 -0.7176715 0.39849412 -0.0075434316 -0.6452093 -0.021343648 -1.8798022 -0.6850589 -0.77730966 -0.29813942 -0.3271555 -0.78933156 -0.14717667 -0.4268735 -0.30714473 0.29189894 -1.0456735 -0.78267944 -0.41811112 -0.35908404 -0.5026904 -0.4876857 -0.09287779 0.08044078 -0.45307255 0.24601133 1.746392 -0.20616503 0.634982 -0.21105865 -0.4551575 -0.33835074 -0.25727645 0.37869242 0.49421927 -1.054877 -0.5006005 -0.49638012 -0.32227823 -0.08642905 -0.38784352 -0.44670695 -0.4327642 0.04666193 -0.4457811 0.517165 0.49214497 0.00793304
../OJ_raw_pkl_small/4/2136.pkl,0.024843624 -0.009673759 0.6861542 -0.6607093 0.45978177 -0.075855434 -0.5583369 -0.3879052 -1.8804655 -0.42992416 -0.59177583 -0.16282964 -0.68012935 -0.7858652 0.18888454 -0.5215798 -0.45069423 0.80600345 -1.6335632 -0.5448268 -0.7519765 -0.54212695 -0.3201207 -0.2729709 0.011636319 0.80827105 -0.7011267 0.77311987 1.7067103 0.1966261 1.208822 -0.26370412 -0.59948444 -0.49946204 -0.12662779 -0.05419623 0.25376463 -0.6841709 -0.40576535 -0.17058651 -0.47702867 0.16855188 -0.5767512 -0.31923243 -0.26667276 0.49727058 -0.6917568 0.21135959 0.9043308 -0.104467645
../OJ_raw_pkl_small/4/484.pkl,0.9867861 0.4023196 0.9495686 -0.646848 0.5356575 -0.00053741824 -0.5232096 -0.17331676 -1.7359108 0.033066586 -0.54788345 -0.047789454 -0.35574752 -0.787744 0.33869064 -0.44714355 -0.6862809 0.79308444 -1.3047017 -0.35675752 -0.76421255 -0.52323 -0.5528551 -0.54095393 -0.25102183 0.19666797 -0.6385145 0.6772546 1.8053727 -0.097385265 0.639328 -0.2666437 -0.29724386 -0.5571702 -0.114926726 -0.0228916 0.28057796 -0.4668104 -0.51425046 -0.23318654 -0.4058287 -0.08358186 -0.527395 -0.3072496 -0.2906252 0.20041376 -0.47993994 0.5185802 0.82120997 -0.059075356
../OJ_raw_pkl_small/1/770.pkl,1.2443299 0.7159612 1.1275078 -0.5915796 0.6885815 -0.1797384 -0.6578169 0.11518982 -2.0181746 -0.38781282 -0.6463635 -0.32058224 -0.58193666 -0.61824405 -0.04579469 -0.4874248 -0.7682545 0.49520317 -1.4306039 -0.64398056 -0.6087328 -0.47678027 -0.5536282 -0.65571207 -0.21205963 0.19863574 -0.59385085 0.36562625 2.5675583 -0.20415504 0.9029829 -0.2560731 -0.76437706 -0.7809181 -0.09875218 0.03662484 0.54627115 -0.8877886 -0.5482401 -0.3111118 -0.4963381 -0.045492925 -0.40800372 -0.24973011 -0.04039845 0.055039123 -0.58233577 0.71868837 0.82054436 -0.05772432
../OJ_raw_pkl_small/1/1944.pkl,1.2508032 0.577112 0.7701769 -0.6761915 0.57916254 -0.07972935 -0.64958864 0.243399 -1.9419533 -0.6227319 -0.7870867 -0.31715503 -0.64639163 -0.67644304 -0.11648676 -0.48313928 -0.74141324 0.2989664 -1.1345512 -0.48275626 -0.67181927 -0.4794397 -0.46084356 -0.46974853 -0.14875518 0.3549461 -0.46353424 0.1405067 2.263297 -0.16265391 0.6675407 -0.195562 -0.5620539 -0.7297278 -0.088938266 0.07348704 0.55344385 -0.66460174 -0.4655272 -0.4899132 -0.34512943 -0.018233769 -0.3733031 -0.46673477 -0.39759624 -0.003938799 -0.72406816 0.54659337 0.8109704 -0.08163939
../OJ_raw_pkl_small/1/2050.pkl,0.7039444 0.31215137 0.71563137 -0.6204798 0.12750055 -0.032463662 -0.5481864 -0.09401353 -1.7419108 -0.33418706 -0.715034 0.016034935 -0.6760057 -0.67440253 -0.066161476 -0.4918544 -0.634001 0.51997614 -1.3169023 -0.6826113 -0.725741 -0.5252781 -0.4448019 -0.34796476 -0.040422354 0.6617583 -0.4620523 0.3662499 1.8920789 -0.04047951 0.7170482 -0.23337431 -0.28320712 -0.59771985 -0.1776286 0.0046060733 0.2938512 -0.5785034 -0.37530333 -0.3221249 -0.28640062 0.13794409 -0.504538 -0.4679045 -0.36025944 0.30157307 -0.8371539 0.35004503 0.55621886 -0.12134993
../OJ_raw_pkl_small/1/2088.pkl,1.6997404 0.34725204 0.68432003 -0.6772613 0.24950251 -0.22204305 -0.5792452 -0.0027768183 -1.731237 -0.4947614 -0.7686886 -0.6090631 -0.36223888 -0.14398785 -0.09744786 -0.44989687 -0.18527138 0.6851997 -1.4373177 -0.39215693 -0.6367721 -0.43960887 -0.6190059 -0.4417858 -0.23167652 0.5299957 -0.747407 0.38497636 1.4417787 0.0052950094 1.0481879 -0.29499546 -0.6390452 -0.14765988 -0.28731564 0.108235404 0.2410781 -0.67500675 -0.5017509 -0.24221024 -0.3514519 -0.018879792 -0.1798836 -0.52711976 -0.05347417 0.047218803 -0.7822835 0.5953702 0.84873706 -0.0582032
../OJ_raw_pkl_small/1/1572.pkl,0.6063663 0.4535296 0.5514656 -0.6445623 0.6908826 0.039096862 -0.55878365 -0.100824155 -1.761959 -0.6864218 -0.56058615 -0.14271483 -0.4592489 -0.7475824 -0.081393875 -0.489185 -0.709906 0.29415435 -1.0079024 -0.5790896 -0.6528986 -0.35014153 -0.40517575 -0.80094147 -0.18555036 0.5510708 -0.25537008 0.2191362 2.3499165 0.040814247 0.6248143 -0.3140444 -0.31824157 -0.67789644 -0.1013629 0.032147743 0.28272966 -0.5017941 -0.53470963 -0.45369476 -0.26365513 0.05044841 -0.42073283 -0.4879833 -0.5193232 0.15381715 -0.63347423 0.46622217 0.7549258 -0.08930766
../OJ_raw_pkl_small/1/2115.pkl,0.7087413 0.31613183 0.8001955 -0.6111435 0.24141455 -0.023521017 -0.58632994 0.04002058 -1.7243297 -0.30728918 -0.7597951 -0.31424704 -0.41064963 -0.8114786 -0.009580304 -0.41828805 -0.4477439 0.41690403 -1.3170704 -0.7988658 -0.5338929 -0.34427133 -0.5210443 -0.36250448 -0.18671404 -0.06908102 -0.35814992 0.14565319 1.4891568 -0.019848268 0.43408778 -0.16430438 -0.60660523 -0.663467 0.002614993 0.071600996 0.4529414 -0.7184858 -0.26466167 -0.3528396 -0.3347024 -0.120670795 -0.34121782 -0.3325252 -0.3471703 0.16194251 -0.5477568 0.5293111 0.6266624 -0.019178174
../OJ_raw_pkl_small/6/899.pkl,1.2489504 0.15573613 0.6697396 -0.75460047 0.6514595 0.01946709 -0.549549 -0.11658879 -1.7404372 -0.5325401 -0.7039444 -0.42327332 -0.31118056 -0.6608505 0.0075962874 -0.43853182 0.24459843 0.49167728 -1.216169 -0.33872643 -0.637563 -0.39315853 -0.48752496 -0.67733824 -0.26892045 0.12734199 -0.54728204 0.3157992 1.2897676 -0.023139259 0.85866994 -0.22470903 -0.449029 -0.3198354 -0.042542044 0.08232314 0.47713917 -0.5418407 -0.45688224 -0.4896066 -0.35669887 -0.15764935 -0.3406969 -0.20210074 -0.17146978 0.20507838 -0.8131198 0.54899704 0.70821166 0.02475129
../OJ_raw_pkl_small/4/951.pkl,0.7385893 0.46352097 0.7915653 -0.6073293 0.80558765 -0.07866554 -0.6609609 -0.28083158 -1.6454412 -0.50435835 -0.33986923 -0.024007892 -0.87840295 -0.73921466 -0.08486161 -0.5348151 -0.68778735 0.50750494 -1.265697 -0.5853066 -0.81938046 -0.61582536 -0.30471912 -0.68641424 -0.1266628 0.9066529 -0.7429139 0.57494724 1.5707623 0.08727128 0.7431911 -0.24998417 -0.48914254 -0.60801965 -0.21905191 -0.09664845 0.017355181 -0.04021354 -0.55185723 -0.41911042 -0.39071077 0.15176652 -0.52328646 -0.18399738 -0.021118606 0.44521448 -0.7614832 0.6526861 0.9249031 -0.23581491
../OJ_raw_pkl_small/4/1370.pkl,0.19251525 0.074567705 0.7264448 -0.75444674 0.15034479 0.034790706 -0.5368248 -0.57878065 -1.3690791 -0.11476447 -0.6824693 0.015413138 -0.39562094 -0.885482 0.13443601 -0.48455954 -0.5072097 0.7465629 -1.3130643 -0.6310033 -0.6114084 -0.45476335 -0.55343825 -0.3016849 -0.14818563 0.3092113 -0.38619757 0.6540764 1.7505664 0.13450934 0.8475293 -0.17172152 -0.21358745 -0.53072023 -0.17638344 0.050287303 0.20804204 -0.63488305 -0.5100685 -0.23505151 -0.3435316 0.020501617 -0.47841364 -0.44983837 -0.20951828 0.39301997 -0.7124385 0.4571983 0.6503126 -0.028173434
../OJ_raw_pkl_small/4/466.pkl,0.23640274 0.009122875 0.85044867 -0.6110971 0.045072455 0.09524755 -0.6571618 -0.4301698 -1.5300122 -0.2552262 -0.26800257 0.3485643 -0.50590587 -0.8936537 0.3395083 -0.41297555 -0.71197164 0.7396845 -1.1541864 -0.57298845 -0.6281 -0.3644684 -0.5957987 -0.38739088 -0.14980727 -0.05289819 -0.37941673 0.6264215 0.67503697 0.031372532 0.59330857 -0.24487913 -0.18822579 -0.7610756 -0.041915968 -0.078710906 0.33513656 -0.46766427 -0.4582529 -0.11997551 -0.26013616 -0.090491116 -0.49582347 -0.16130374 -0.09208866 0.5215063 -0.605257 0.5199664 0.47232062 -0.019246325
../OJ_raw_pkl_small/1/1190.pkl,0.504988 0.10380517 0.5099807 -0.6643435 0.42493612 -0.083070986 -0.6008895 -0.1607207 -1.9351238 -0.6946163 -0.639677 0.036530484 -0.31158596 -0.79344314 -0.05950036 -0.43923238 -0.51001215 0.42408016 -1.1209315 -0.3930344 -0.65318924 -0.44130468 -0.48328173 -0.4234083 -0.04289355 0.36908934 -0.49800137 0.46881926 1.482153 -0.2676444 0.71480614 -0.202097 -0.3158718 -0.5321567 -0.11456068 0.025221534 0.40882358 -0.75006616 -0.38493723 -0.3543908 -0.29333735 0.057394788 -0.41737098 -0.3620992 -0.4091166 0.27297205 -0.75585496 0.34720305 0.40574467 0.038219173
../OJ_raw_pkl_small/4/1975.pkl,-0.074070856 0.14301772 0.69370395 -0.6161615 0.13801305 0.009260639 -0.45183092 -0.58200955 -1.4035344 -0.26980838 -0.47213235 -0.024477746 -0.3730535 -0.90654653 0.19747068 -0.4681873 -0.34481567 0.63207436 -1.3739507 -0.9320628 -0.56988394 -0.24725114 -0.42313448 -0.48194295 -0.17559738 -0.07580371 -0.50048995 0.52895355 1.4283247 0.10669077 0.76147443 -0.103199705 -0.63049746 -0.59045804 -0.11024837 0.18278046 0.2564761 -0.26115254 -0.48524174 -0.31800824 -0.3639127 -0.08971756 -0.37020168 -0.17587316 -0.050795373 0.37143236 -0.5746308 0.32197595 0.81205094 0.13263364
../OJ_raw_pkl_small/1/997.pkl,0.6752612 0.688895 0.63634974 -0.6903315 0.41386962 -0.10858089 -0.7915901 -0.14180727 -2.0023887 -0.8729154 -0.7455585 -0.049912944 -0.7712067 -0.7257972 -0.26857674 -0.5664867 -0.58532596 0.2945774 -1.3236158 -0.6946042 -0.56486183 -0.5160836 -0.47859448 -0.45233107 0.08246198 1.1810393 -0.44212463 0.29413226 3.423047 0.13557126 0.8884693 -0.28997704 -0.31663516 -0.8087642 -0.2750455 0.052924003 0.314945 -1.001174 -0.57118684 -0.47862047 -0.43612453 0.2132218 -0.45732912 -0.5510858 -0.37130287 0.14450361 -0.70246905 0.65331584 1.0889387 -0.1563201
../OJ_raw_pkl_small/1/70.pkl,0.7181085 0.61963964 0.35289353 -0.5791404 0.65447927 -0.024293132 -0.74510884 0.25400716 -1.890954 -0.7211899 -0.7837477 -0.4191563 -0.41293103 -0.5069842 -0.03398013 -0.49857408 -0.6774909 0.15656677 -0.9178035 -0.27126613 -0.509356 -0.3058643 -0.2805032 -0.7559976 -0.058700506 1.1413293 -0.20293486 0.12520668 2.596748 0.03978013 0.42648444 -0.1900801 -0.20480756 -0.670755 -0.1322535 0.08885992 0.35539153 -0.63367873 -0.4236868 -0.44615078 -0.31286576 -0.050769392 -0.3908786 -0.5976434 -0.6014092 -0.022884853 -0.58790463 0.67126936 0.87151307 -0.07401871
../OJ_raw_pkl_small/4/1851.pkl,0.13099839 0.09535585 0.5124521 -0.70235044 0.12951438 0.025086619 -0.63522005 -0.49325687 -1.887914 -0.50355923 -0.55292106 -0.07587147 -0.66729325 -0.90982425 -0.07144292 -0.4530641 -0.7658354 0.711787 -1.6245683 -0.7766378 -0.7298751 -0.42606568 -0.4389747 -0.5334108 0.02006371 0.9058637 -0.54877603 0.49801326 1.974108 0.15081957 1.3666329 -0.28388116 -0.45822704 -0.719671 -0.26491025 0.08683433 0.44880176 -0.59155643 -0.44513407 -0.18851815 -0.39340416 0.1815799 -0.41025618 -0.3687251 -0.1885197 0.48529565 -0.78536975 0.4094312 0.7605117 0.05956381
../OJ_raw_pkl_small/4/119.pkl,0.42666167 0.23641145 0.7626387 -0.72680426 0.5127862 -0.023126923 -0.49013355 -0.45691648 -1.6613045 -0.14646763 -0.8600671 -0.19836387 -0.4290228 -0.87906617 0.29089218 -0.43292275 -0.50202376 0.811157 -1.3550836 -0.67287606 -0.7784443 -0.4425207 -0.5262178 -0.62415385 -0.17615235 0.48425424 -0.6718401 0.48205894 1.6181102 0.22108242 0.87588686 -0.12610145 -0.40122354 -0.63277376 -0.24040665 0.1047212 0.3250026 -0.9409704 -0.31720427 -0.33614683 -0.39084074 -0.0016285339 -0.44790107 -0.2200025 -0.4188189 0.421152 -0.58072203 0.27634305 0.92820644 0.09708369
../OJ_raw_pkl_small/1/741.pkl,1.1685871 1.0115222 0.6635777 -0.63312423 0.8172895 0.01442516 -0.71929955 -0.053597968 -1.8703408 -0.7917841 -0.57086533 -0.19107127 -0.42812517 -0.60085905 0.05032635 -0.4205677 -0.7195552 0.33555725 -0.9806722 -0.471606 -0.50067204 -0.34957847 -0.41770473 -0.4445073 -0.14875206 1.3153931 -0.47042236 0.24230361 1.9481416 -0.01266254 0.6038218 -0.2801967 -0.27484414 -0.52232444 -0.14359403 0.12451377 0.2426281 -0.41443396 -0.42660645 -0.39846584 -0.2543059 0.071154766 -0.29618013 -0.3166138 -0.23427108 0.008109294 -0.62998843 0.80713093 0.73185974 -0.077271506
../OJ_raw_pkl_small/4/2016.pkl,0.64308596 0.28624818 0.87835824 -0.78625464 0.5283668 0.05358176 -0.45299622 -0.61179453 -1.7522504 -0.18211707 -0.68514496 0.30312556 -0.57920223 -0.87149364 0.23797798 -0.38643703 -0.6263318 0.7858913 -1.3637456 -0.31861517 -0.8108848 -0.43782246 -0.5590898 -0.53828025 -0.09866635 0.9123432 -0.7145958 0.63324666 2.0717092 0.19845548 1.113141 -0.32041773 -0.317307 -0.6295008 -0.3035508 0.13015789 0.29542288 -0.9860775 -0.39939284 -0.3945054 -0.5136457 0.20426561 -0.50832945 -0.06864916 -0.38188478 0.36552626 -0.4108704 0.14086801 1.0866388 0.026264805
../OJ_raw_pkl_small/6/880.pkl,1.0398803 0.5934495 0.54809105 -0.58878857 0.7610279 0.018650152 -0.835105 0.10282263 -1.8285247 -0.7078428 -0.58699197 -0.3297066 -0.53497624 -0.5227349 0.15382017 -0.4926732 -0.28142455 0.44757497 -1.0267568 0.113186 -0.7469697 -0.3910471 -0.32655227 -0.7419442 -0.12003873 0.99349856 -0.38123694 0.3557429 1.4738778 0.16634099 0.8329154 -0.21514484 -0.045435004 -0.6142801 -0.1133706 -0.02618033 0.42502233 -0.33203256 -0.5433161 -0.33722085 -0.39014664 -0.1300605 -0.41238648 -0.40543315 -0.3314952 0.14354636 -0.7290495 0.7395453 0.99849653 -0.100846104
../OJ_raw_pkl_small/6/1986.pkl,1.143883 0.01808706 0.7173124 -0.64937323 0.47360116 -0.021820892 -0.5438359 -0.21799752 -1.6041113 0.01185416 -0.5668046 -0.23484126 -0.23144116 -0.62401956 0.44735608 -0.45365885 -0.39902687 0.8224242 -1.1274865 -0.3674851 -0.7827338 -0.32334292 -0.4746062 -0.74907273 -0.26811197 -0.18172523 -0.52347666 0.5755885 1.20958 -0.15662898 0.9299785 -0.27262154 -0.32291627 -0.47375536 -0.13770948 0.061579473 0.48350617 -0.40775418 -0.5469501 -0.22886878 -0.37166432 -0.33819348 -0.44770792 -0.31086856 -0.3569045 0.25531048 -0.66301364 0.44896674 0.678179 0.011901218
../OJ_raw_pkl_small/4/788.pkl,0.67832506 0.13161553 0.6170508 -0.785298 0.43524167 0.037828334 -0.6072424 -0.68710184 -1.8387278 -0.3246605 -0.6802073 -0.079698965 -0.44066817 -0.81346744 0.09392581 -0.38842168 -0.5451604 0.86224663 -1.4164551 -0.20486882 -0.71321 -0.39088708 -0.4987478 -0.59950763 -0.085897036 0.66831225 -0.6919353 0.8619005 1.947755 -0.063589506 1.2527258 -0.29312128 -0.25263396 -0.6063168 -0.32899517 0.14643013 0.3428798 -1.0231925 -0.45419434 -0.30454516 -0.45329434 0.21054415 -0.42196947 -0.3101444 -0.49789676 0.33637965 -0.4739723 0.44964167 0.6456124 0.08534551
../OJ_raw_pkl_small/1/1075.pkl,1.2767731 0.5369792 0.44645992 -0.67271423 1.0630598 -0.06348576 -0.7463531 -0.02643289 -2.0002086 -0.98665076 -0.74773663 -0.5435775 -0.61631346 -0.7018893 -0.23340897 -0.40024388 0.28961977 0.37673408 -1.2322772 -0.11699629 -0.63200104 -0.49116367 -0.49884388 -0.5369843 -0.17997706 0.9099262 -0.71206194 0.27329668 1.9722111 0.31934714 0.97570986 -0.26085392 -0.60458326 -0.5247046 -0.30650172 0.12640895 0.317974 -0.8772188 -0.53120583 -0.28822187 -0.4626415 0.037180677 -0.18863006 -0.5510843 -0.28547436 -0.053403955 -0.68014205 0.65901345 0.9467187 -0.076332204
../OJ_raw_pkl_small/1/504.pkl,0.63830775 0.44826096 0.55739456 -0.79162157 0.6724198 -0.04939861 -0.66951215 -0.02132421 -1.9811938 -0.70997316 -0.8025574 -0.4137791 -0.5121154 -0.83640426 -0.18556413 -0.5369057 -0.13352877 0.34169877 -1.4831933 -0.6529911 -0.59273565 -0.56874216 -0.40915284 -0.4216275 0.01962442 0.7352163 -0.5695348 0.23822597 2.8085358 -0.0098845335 0.9222216 -0.15109685 -0.45230404 -0.54112434 -0.14733566 0.02299934 0.47389102 -1.0507728 -0.54235256 -0.47980943 -0.41327643 0.12546274 -0.5145035 -0.53042495 -0.49381602 0.15743059 -0.7508379 0.53562814 0.92263454 -0.1308271
../OJ_raw_pkl_small/1/259.pkl,0.76034725 0.77917355 0.4856978 -0.72115606 0.585515 -0.074156 -0.5808185 0.0035209102 -1.8908509 -0.88874495 -0.8193341 -0.20908982 -0.5169765 -0.7166764 -0.26751325 -0.5651525 -0.6188417 0.20274991 -1.2667984 -0.71309847 -0.62817925 -0.48553863 -0.51434636 -0.48947802 0.0059553003 1.244106 -0.50967026 0.10735181 3.0590158 0.1791118 0.63066053 -0.28972954 -0.42029595 -0.5983859 -0.28411016 0.12622432 0.19106986 -0.82492226 -0.5082159 -0.5562846 -0.31202474 0.10694935 -0.4393346 -0.56036305 -0.5112359 0.11040078 -0.6784108 0.50284135 1.1288229 -0.12022857
../OJ_raw_pkl_small/1/873.pkl,1.0412323 0.20109811 0.9839505 -0.63870716 0.49284995 -0.08524756 -0.58239025 -0.14502837 -1.8903965 -0.05657054 -0.6546185 -0.21441697 -0.29221922 -0.7862316 0.29636803 -0.36812982 -0.28189883 0.7894722 -1.2839335 -0.5878421 -0.6279004 -0.41702878 -0.5840205 -0.45270228 -0.14002503 -0.14439066 -0.6003279 0.6337924 1.2495501 -0.21765238 0.8075369 -0.14502455 -0.39119962 -0.47221586 -0.21032572 0.09293902 0.3560963 -1.1174753 -0.41599095 -0.3043125 -0.36162478 -0.05399299 -0.41381025 -0.0842219 -0.32034475 0.20872948 -0.5687786 0.5790571 0.6867895 0.0307437
../OJ_raw_pkl_small/6/3782.pkl,0.7712591 0.14878628 0.47867113 -0.69623375 0.43083185 -0.046507273 -0.605013 -0.500835 -1.4509225 -0.27120554 -0.5066504 -0.031096863 -0.47647128 -0.38120553 0.21040787 -0.5542299 -0.03535977 0.7509305 -1.2841374 0.3281381 -0.7817683 -0.5756897 -0.4701102 -0.7247941 -0.29191393 1.2137495 -0.57679737 0.69809794 1.8697332 0.27547225 1.0059175 -0.39860633 -0.10324364 -0.3181075 -0.1011594 -0.17965262 0.17787288 -0.3361981 -0.6728936 -0.18722776 -0.45569175 -0.044733778 -0.6212419 -0.44186002 -0.4971126 0.28977877 -0.78319484 0.3338844 0.73170155 -0.31193838
../OJ_raw_pkl_small/4/565.pkl,-0.061197855 0.11379982 0.8013989 -0.7005434 0.1372105 -0.088274226 -0.51845515 -0.59049904 -1.6744304 -0.32926744 -0.4064929 0.14514941 -0.42013532 -0.7707071 0.2473586 -0.39374807 -0.6276032 0.56565714 -1.2829024 -0.41306895 -0.8445774 -0.39228222 -0.4398047 -0.41819754 -0.16463792 0.6256856 -0.4721266 0.47613063 1.1939154 0.33797908 0.74581105 -0.24621236 -0.45342565 -0.62906635 -0.089750834 0.11909138 0.39908192 -0.93470335 -0.3842817 -0.29600078 -0.3813659 0.023860943 -0.43775225 0.06726922 -0.35085627 0.35087326 -0.40888774 0.09721353 0.97147316 0.03747814
../OJ_raw_pkl_small/6/1228.pkl,0.3291255 0.13104913 0.59306943 -0.7185696 0.67332083 -0.003360441 -0.54881305 -0.5111719 -1.7192645 -0.4841755 -0.74232996 0.09982582 -0.5759432 -0.7936492 0.05651059 -0.44229296 -0.58412147 0.5873461 -1.0703954 -0.5921619 -0.84925884 -0.46256092 -0.41429546 -0.75975186 -0.14747408 1.0255846 -0.6283392 0.58643216 1.6334339 0.17972684 0.8396426 -0.27668658 -0.22005029 -0.41056708 -0.31931534 0.07786417 0.30767623 -0.86594594 -0.48742864 -0.40566996 -0.35947207 0.12240951 -0.51214474 -0.15360698 -0.4298274 0.40368864 -0.6006464 0.29599276 0.70464784 -0.12047791
../OJ_raw_pkl_small/6/331.pkl,1.5243074 0.28049806 0.38348615 -0.81977713 0.4552337 -0.22547604 -0.77908057 -0.43332312 -1.7431285 -1.0532882 -0.7534912 -0.29430172 -0.655228 0.03952439 -0.22307311 -0.5046581 0.08425949 0.53921837 -1.3788129 0.7193662 -0.80384827 -0.608454 -0.47796312 -0.8457566 -0.25945204 1.9455483 -0.7809856 0.44303358 1.8334323 0.4361175 2.0193763 -0.41652632 0.40461197 -0.1642371 -0.44687268 -0.083898894 0.59140897 -0.9478064 -0.73793274 -0.15702116 -0.54577833 0.07129127 -0.48817226 -0.55650395 -0.47915208 0.2182854 -0.9482876 0.4444528 0.81272143 -0.26890907
../OJ_raw_pkl_small/1/2132.pkl,0.52779925 0.30197573 0.9365663 -0.60657525 0.21436384 -0.09445973 -0.5703771 -0.3163858 -1.7756166 -0.1704789 -0.6511572 -0.15666799 -0.6189382 -0.84590673 0.08255411 -0.48877352 -0.56278074 0.76146746 -1.4326942 -0.53189343 -0.5018917 -0.50564605 -0.5183559 -0.3468202 -0.03853902 0.39948732 -0.56267285 0.5138649 2.2021136 -0.034314938 1.0000784 -0.1913558 -0.594086 -0.6487887 -0.18026207 -0.029503057 0.23198394 -0.81801754 -0.4403211 -0.24225561 -0.46419388 0.07392058 -0.48335636 -0.27783394 -0.17673185 0.22058095 -0.76665133 0.5922982 0.75703335 -0.09439002
../OJ_raw_pkl_small/6/439.pkl,1.5821228 0.19797076 0.45201585 -0.9531968 0.49638245 -0.20264556 -0.71186674 -0.7792276 -1.7347877 -0.9691731 -0.7751586 -0.448224 -0.7690312 0.38373438 -0.31520632 -0.5120115 0.33259603 0.7277687 -1.6816019 0.8167223 -0.72859 -0.5755582 -0.49832854 -0.7613735 -0.3219295 1.8575207 -0.7676105 0.6164926 2.613945 0.5548705 2.849846 -0.4891332 0.45549536 0.2106179 -0.5033903 -0.05469483 0.4946792 -1.0257084 -0.83011556 0.1902655 -0.5815436 0.069048986 -0.3235607 -0.7145139 -0.16783535 0.24824305 -1.034587 0.52645355 1.0703428 -0.23921572
../OJ_raw_pkl_small/4/678.pkl,-0.022303237 0.03951545 0.92204225 -0.63850576 0.2701486 -0.06237361 -0.25877416 -0.39937145 -1.3312805 0.48891896 -0.6686347 0.07983583 -0.43297026 -0.9243038 0.4542709 -0.30576476 -0.4780417 1.0121057 -1.0244377 -0.5664455 -0.9492342 -0.5953634 -0.4756304 -0.51838106 -0.26615992 0.44971633 -0.45270348 0.59410536 0.9504852 -0.04823007 0.7069767 -0.18248372 -0.2979207 -0.5587861 0.02117799 -0.18636595 0.31475037 -0.22276649 -0.39097458 -0.15586962 -0.33922413 -0.07312842 -0.516245 0.15289553 -0.062612206 0.3793494 -0.65728045 0.19139272 0.44684958 -0.19948508
../OJ_raw_pkl_small/4/40.pkl,-0.031037442 0.012580848 0.8499643 -0.72782683 0.06985174 0.017953113 -0.3927374 -0.6739941 -1.5107827 -0.15845527 -0.62963384 0.12523417 -0.45110977 -0.8707398 0.25031096 -0.42615548 -0.59005976 0.7657177 -1.5702504 -0.4570702 -0.7152606 -0.4160601 -0.5818491 -0.38876963 -0.23139963 0.16172142 -0.5349328 0.58247423 1.7669617 0.195428 0.88504106 -0.30665073 -0.47897103 -0.57815164 -0.06592713 0.08288355 0.44346547 -0.4182077 -0.4478173 -0.23915361 -0.35612416 -0.026939016 -0.4229295 -0.23825195 -0.08193299 0.38770118 -0.45003042 0.14720587 0.8925319 0.036450792
../OJ_raw_pkl_small/1/1341.pkl,0.96963066 0.47329456 0.7740959 -0.60510504 0.4570691 -0.10590626 -0.6372232 0.008317567 -1.9154831 -0.57226247 -0.72462654 -0.12975092 -0.5780773 -0.63448083 0.07658327 -0.46097863 -0.6809437 0.3908194 -1.2160842 -0.38774192 -0.7143495 -0.47669858 -0.56096876 -0.4956631 0.022887379 0.5762676 -0.58645815 0.31840208 1.9818405 -0.037671883 0.7127177 -0.2342221 -0.4976027 -0.5544266 -0.14869489 0.12426648 0.35958052 -0.98580796 -0.35301587 -0.467715 -0.389531 0.073976725 -0.50238156 -0.20249261 -0.34706125 0.19131462 -0.6622888 0.4797705 0.7590869 -0.14577717
../OJ_raw_pkl_small/4/326.pkl,0.98512423 0.5236696 0.7253262 -0.7646526 0.5657102 -0.060167547 -0.5013242 -0.4690138 -1.5580245 -0.428649 -0.5955366 -0.14342648 -0.634198 -0.66670084 0.064004764 -0.51396483 -0.046493094 0.76424164 -1.3765949 -0.2732967 -0.75600755 -0.5799813 -0.51341295 -0.63347346 -0.2498649 1.2299984 -0.6818593 0.4090239 2.4046845 0.42380217 1.229121 -0.42836422 -0.3870859 -0.5376875 -0.19055165 0.016409293 0.18547757 -0.18965802 -0.5984165 -0.33198795 -0.43800217 0.032795038 -0.396301 -0.35962498 -0.23377024 0.31395885 -0.6549538 0.46647316 1.177504 -0.15923089
../OJ_raw_pkl_small/1/469.pkl,0.48846757 0.30257604 0.8694907 -0.5869361 0.70139086 0.009223351 -0.42851776 -0.15113144 -1.7266747 -0.2396304 -0.5585599 -0.18031076 -0.41231436 -0.8236084 0.057009462 -0.36026895 -0.49651638 0.62508947 -1.4492258 -0.73011816 -0.5674759 -0.4053447 -0.44772363 -0.40590015 -0.14619535 0.17643774 -0.5176419 0.3456311 1.1398058 -0.19679901 0.69752795 -0.18217103 -0.639589 -0.5209655 0.008247209 0.06987615 0.34361878 -0.7615336 -0.31386456 -0.25702754 -0.26003492 -0.05711618 -0.2584174 -0.3333054 -0.051819757 0.11306871 -0.6793247 0.43107435 0.36408958 0.051245064
../OJ_raw_pkl_small/1/2212.pkl,0.65403354 0.26247454 0.937014 -0.57171714 0.40571386 -0.10052706 -0.5001803 -0.042191915 -1.7645919 -0.109309666 -0.5814755 0.028936535 -0.5236517 -0.752076 0.21603267 -0.47207385 -0.68609565 0.68881583 -1.1733752 -0.3549822 -0.7330701 -0.5650282 -0.47291392 -0.42764992 -0.13664898 0.42786032 -0.5318774 0.5481208 1.6186963 -0.08905422 0.6262837 -0.21294077 -0.42134288 -0.65635806 -0.07448031 -0.089540556 0.3567342 -0.5974627 -0.4396376 -0.2893026 -0.37004524 -0.036433704 -0.5761024 -0.2406138 -0.33349875 0.31307343 -0.7362144 0.385896 0.5919075 -0.16085568
../OJ_raw_pkl_small/6/2371.pkl,0.61296743 -0.080040604 0.8374543 -0.6004809 0.50628453 -0.12185629 -0.5358135 -0.34562305 -1.6719255 0.22679195 -0.6803363 -0.06908564 -0.29276505 -0.791419 0.61965084 -0.3887678 -0.59651124 0.98838323 -1.1663151 -0.2134687 -0.84881437 -0.4643813 -0.54627395 -0.6125248 -0.16736305 0.011022162 -0.6422605 0.86488605 0.88947845 -0.02981538 0.8952782 -0.19637303 -0.3714997 -0.45136774 -0.1474773 0.019562105 0.44550422 -0.94230795 -0.4959039 -0.1890703 -0.44637704 -0.17741965 -0.58831924 0.025252296 -0.49150473 0.32604742 -0.45027566 0.22135377 0.5710532 -0.062544145
../OJ_raw_pkl_small/1/1845.pkl,1.4104974 0.54347616 0.98310035 -0.54394054 0.64066625 -0.15782395 -0.5169242 0.09859749 -1.9169196 -0.05349876 -0.6354094 -0.4423869 -0.34440386 -0.7573709 0.19779351 -0.40957543 -0.15392543 0.78605115 -1.3566284 -0.56873596 -0.605863 -0.47907832 -0.5923065 -0.3892469 -0.08034116 -0.011320583 -0.62091905 0.5578635 2.13606 -0.06045315 0.9902193 -0.2445268 -0.652401 -0.60912263 -0.25316358 0.15630752 0.28469515 -0.96479875 -0.46686602 -0.23715027 -0.5190988 -0.106176846 -0.40304264 -0.15666988 -0.42874965 0.037620824 -0.47486612 0.58721477 1.0036473 0.084454
../OJ_raw_pkl_small/4/174.pkl,0.09812693 0.00436699 0.9863737 -0.67895997 0.35826728 -0.062306017 -0.420832 -0.49690178 -1.6025406 -0.0014201966 -0.57327527 -0.032958303 -0.5884298 -0.8545247 0.4315488 -0.453617 -0.2861285 0.91150665 -1.2841295 -0.49065238 -0.82964206 -0.533989 -0.5074046 -0.37919313 -0.21249047 0.6657044 -0.62494475 0.7015492 1.0593532 0.22230412 0.7175213 -0.28472638 -0.41541126 -0.48117918 -0.018347083 -0.06194305 0.25116107 -0.41655782 -0.4677572 -0.3011576 -0.38524634 0.06723075 -0.5486301 -0.10948416 -0.068652846 0.41473308 -0.68595403 0.20824917 0.75774187 -0.09336066
../OJ_raw_pkl_small/1/938.pkl,0.33029038 0.26860029 0.7915016 -0.7396247 0.44994923 -0.10408756 -0.5557081 -0.28576344 -1.6932975 -0.7283705 -0.653452 -0.24031593 -0.65953636 -0.7725821 0.1526706 -0.42100787 -0.28399134 0.27070174 -1.3115375 -0.4659503 -0.5882241 -0.3569984 -0.47207043 -0.18879434 -0.15482414 0.37108725 -0.5815758 0.24995077 0.93357337 -0.07618735 0.46772268 -0.118980475 -0.4866481 -0.436252 -0.1426001 0.13691463 0.3329536 -0.83995765 -0.37392172 -0.5034965 -0.3261929 0.13011833 -0.37663522 0.08605396 -0.36301944 0.11604273 -0.6171187 0.35907072 0.44442508 -0.012362927
../OJ_raw_pkl_small/4/1550.pkl,0.7273466 0.44575325 0.83257616 -0.7870975 0.5664465 0.068814345 -0.5886149 -0.38634276 -1.7979718 -0.55244964 -0.6657003 0.21699525 -0.75464 -0.8479459 0.02503222 -0.4567156 -0.78544456 0.56114864 -1.3816837 -0.3902504 -0.724076 -0.58617246 -0.49998733 -0.44566104 -0.1968144 1.1658835 -0.5844858 0.5132384 2.116356 0.09855413 0.9580433 -0.29832503 -0.18669951 -0.6750542 -0.11948612 0.0020725783 0.48751253 -0.44864744 -0.45337385 -0.40383574 -0.39651427 0.2759511 -0.5192431 -0.24136508 -0.12042239 0.40292856 -0.6622969 0.28631455 0.7760264 -0.07749525
../OJ_raw_pkl_small/4/981.pkl,0.41341627 0.41147974 0.8693523 -0.780115 0.6460578 -0.09975927 -0.47842562 -0.5124314 -1.644559 -0.18109006 -0.5159923 0.021100424 -0.55613405 -0.80042976 0.16280156 -0.46217707 -0.6921322 0.6805883 -1.2367496 -0.14179265 -0.7798102 -0.59372485 -0.48207137 -0.43992645 -0.089482255 1.1589992 -0.6366425 0.49225566 2.6066194 0.08701792 1.0811131 -0.3370649 -0.51916623 -0.65058213 -0.30272812 0.023260793 0.16401868 -0.8846936 -0.558588 -0.31599995 -0.48490062 0.15831031 -0.55162096 -0.2859517 -0.42174265 0.12521364 -0.4765315 0.22405833 0.9963855 -0.09941309
../OJ_raw_pkl_small/1/2243.pkl,0.7745848 0.36312684 0.66945064 -0.6817788 0.5564239 -0.09557988 -0.4814621 -0.15531099 -1.6669728 -0.23704249 -0.7440992 -0.2609416 -0.4375356 -0.6749989 0.22963484 -0.5017577 -0.601852 0.6179606 -1.2258779 -0.73189586 -0.49373698 -0.47360563 -0.539112 -0.49328807 -0.110245995 0.6238315 -0.5013411 0.49229527 2.5990503 -0.004471303 0.64951646 -0.23243946 -0.3447875 -0.45229095 -0.207581 0.10769378 0.15926337 -0.62529653 -0.5052958 -0.3439718 -0.3698565 0.07677249 -0.46950266 -0.47160673 -0.34990957 0.2155178 -0.6591496 0.5300329 0.7958557 -0.2107245
../OJ_raw_pkl_small/6/1233.pkl,0.5616587 -0.048946075 0.79844344 -0.66879046 0.34808683 -0.075485006 -0.65717965 -0.4644952 -1.7648453 -0.3709043 -0.5329931 -0.14976893 -0.35957322 -0.7465914 0.1806651 -0.38909605 -0.55672544 0.6578006 -1.2015703 -0.68861413 -0.84198964 -0.31239972 -0.5619341 -0.7658852 -0.23251806 0.2850744 -0.6495385 0.749766 1.0752703 0.17356533 0.8689794 -0.2899349 -0.39421114 -0.47397998 -0.27191114 0.1204574 0.5866943 -0.962371 -0.43192044 -0.35140014 -0.35098407 -0.10569381 -0.35933724 -0.1416741 -0.2759836 0.42034015 -0.53838044 0.5945803 0.61397207 0.057131834
../OJ_raw_pkl_small/1/434.pkl,1.8626726 0.75160676 1.2301072 -0.5422017 0.47460115 -0.20108148 -0.613697 0.059680857 -1.8825428 -0.2679645 -0.6937644 -0.25981244 -0.59575397 -0.27272573 0.08886791 -0.45274526 -0.34007993 0.70638657 -1.4206662 -0.6676893 -0.604903 -0.54086506 -0.6185399 -0.38684797 -0.18371296 0.1594944 -0.77424884 0.43341482 1.7676805 0.12963408 1.0609032 -0.25548184 -0.6532373 -0.47321212 -0.30015743 0.113265306 0.2838618 -0.9040723 -0.49198297 -0.24150024 -0.49596745 -0.12525864 -0.3199526 -0.20330688 0.014974612 0.026195563 -0.5998358 0.7640115 1.2001553 -0.04620104
../OJ_raw_pkl_small/6/1163.pkl,1.5610349 0.14694908 0.40989944 -0.9107243 0.36774632 -0.16947582 -0.85410494 -0.76206714 -1.7796324 -1.2637074 -0.6776266 -0.24606137 -0.81483835 0.45904183 -0.48368 -0.51073045 0.19267452 0.5368257 -1.58087 0.6907229 -0.78170115 -0.49708343 -0.44329238 -0.74210864 -0.3219177 1.9056262 -0.74611324 0.68251973 2.3229113 0.46790883 2.7331147 -0.5046238 0.50972295 0.25286585 -0.5280704 0.034524437 0.54302955 -1.0019531 -0.7803755 0.18339738 -0.4726003 0.020023687 -0.253246 -0.77821577 -0.10845137 0.2573998 -0.91640127 0.5391651 0.9036312 -0.19114326
../OJ_raw_pkl_small/4/1710.pkl,0.5979576 0.51797825 0.8969319 -0.70577943 0.29763424 -0.077213496 -0.6739707 -0.2991685 -1.8968396 -0.57916987 -0.58468926 0.03132415 -0.58813834 -0.81774557 0.048275378 -0.46232393 -0.59019583 0.42691725 -1.3903308 -0.82489145 -0.6371493 -0.42150366 -0.48700428 -0.37468007 -0.0791458 0.5226402 -0.53764933 0.4424457 2.02391 0.26751286 0.7664133 -0.2752187 -0.38342094 -0.714496 -0.24554503 0.17312944 0.31238842 -0.92265135 -0.52667314 -0.37872937 -0.44478044 0.16306472 -0.40896988 -0.0935345 -0.41255105 0.36517176 -0.41987553 0.4752978 1.0957443 -0.017592981
../OJ_raw_pkl_small/1/1618.pkl,0.87237096 0.6074613 0.9151211 -0.55947405 0.14607486 0.0015981926 -0.60033244 0.027614376 -1.8011916 -0.372652 -0.5922062 0.28918603 -0.5492285 -0.7554013 0.024071861 -0.4800706 -0.8059546 0.43208736 -1.0892626 -0.35563082 -0.6370147 -0.5065678 -0.38922924 -0.21254063 -0.18064684 0.5856485 -0.14427967 0.26157442 2.1892078 -0.19401994 0.6281955 -0.12818755 -0.17322516 -0.75754887 -0.039050847 -0.03354179 0.45416403 -0.62163496 -0.48019 -0.31000248 -0.34686288 -0.113462605 -0.49711794 -0.35658053 -0.23180456 0.10728171 -0.7809574 0.43921062 0.75879866 -0.12804332
../OJ_raw_pkl_small/4/1125.pkl,0.9740997 0.83801866 0.8947648 -0.72376376 0.7437435 -0.07636011 -0.63395435 -0.14921243 -1.9180253 -0.80962557 -0.6708903 0.067072004 -0.7901214 -0.7848747 -0.104540646 -0.50473773 -0.6909407 0.34494686 -1.4333497 -0.3489683 -0.85404086 -0.654795 -0.49056974 -0.65042895 -0.13030437 1.2076055 -0.77015364 0.3116494 2.3753302 0.14824921 0.75754285 -0.40984315 -0.2875852 -0.7542552 -0.21356195 -0.042250786 0.215236 0.43718252 -0.54082 -0.15482824 -0.4662656 0.15828945 -0.5607413 -0.16810912 -0.16548757 0.2850881 -0.57799023 0.4713658 1.1541979 -0.1906319
../OJ_raw_pkl_small/1/622.pkl,1.043497 0.10740691 0.88643086 -0.6264103 0.4103403 -0.07747884 -0.5684596 -0.19337223 -1.7845792 -0.1289323 -0.73071116 -0.23084237 -0.3053386 -0.7195946 0.28397226 -0.34615776 -0.64275455 0.69043607 -1.2412199 -0.75627244 -0.60425335 -0.3996045 -0.64819413 -0.37391132 -0.19064218 -0.19358124 -0.6333703 0.58480304 1.092439 -0.21206078 0.62915766 -0.13974755 -0.5470668 -0.4203957 -0.24412318 0.22399606 0.45442042 -1.0876554 -0.39852464 -0.2849826 -0.3551868 -0.14530443 -0.37564903 -0.23519842 -0.19079497 0.13867775 -0.4657558 0.5296527 0.44751596 0.031843893
../OJ_raw_pkl_small/4/1137.pkl,0.3980039 0.2453344 0.6039213 -0.6879988 0.23584573 0.014695191 -0.6317995 -0.31054103 -1.8901355 -0.6966791 -0.71366507 -0.014888201 -0.51751304 -0.8336759 -0.044538595 -0.4562258 -0.7234828 0.42739296 -1.3581101 -0.9917546 -0.7730282 -0.3334324 -0.44934064 -0.6393647 -0.0064274105 0.6105299 -0.51136696 0.31134048 1.7666848 0.22209854 0.87551516 -0.2093854 -0.4295875 -0.70972896 -0.30246234 0.23522614 0.4887776 -0.9457163 -0.45436203 -0.4221107 -0.37884492 0.025670527 -0.41078824 -0.3280087 -0.4614757 0.36457494 -0.5068655 0.28938305 0.944946 0.1275401
../OJ_raw_pkl_small/4/781.pkl,0.9788567 0.751477 1.3428042 -0.57637656 0.43786123 -0.06930683 -0.6736332 -0.08309934 -1.9110466 -0.5243766 -0.6163817 0.11275046 -0.6099988 -0.9076024 0.007038532 -0.48299116 -0.68984383 0.53349346 -1.329491 -1.0931513 -0.5894761 -0.44198522 -0.5586317 -0.38564909 -0.16903763 0.019417815 -0.68792015 0.39726385 1.7582831 0.014418805 0.7993218 -0.13009666 -0.67088497 -0.81975967 -0.21345043 0.17418808 0.44711718 -0.93927175 -0.49268577 -0.40429854 -0.4822185 -0.08292015 -0.41198882 -0.072311915 -0.0009155618 0.38523877 -0.5156044 0.74171984 0.8965249 0.14093833
../OJ_raw_pkl_small/1/1040.pkl,0.9561693 0.5906901 0.3613213 -0.8179483 0.8454318 0.011969299 -0.7593842 -0.14815667 -1.8062403 -0.9637427 -0.7843134 -0.52109253 -0.6342889 -0.32040408 -0.054029875 -0.5298822 -0.4608969 0.24181122 -1.3958346 -0.025030809 -0.48195532 -0.45556766 -0.20674981 -0.6619012 -0.11574008 1.6628385 -0.41726375 0.11991923 2.806148 0.2114246 1.1962129 -0.14811015 0.046685018 -0.51932555 -0.20464984 0.00022192067 0.3988153 -0.6353687 -0.57213306 -0.25349006 -0.4273802 0.038120393 -0.36721838 -0.68351346 -0.32328412 -0.0051979306 -0.8764242 0.54431534 1.113206 -0.17327505
../OJ_raw_pkl_small/1/676.pkl,1.1104424 0.54455584 0.775987 -0.647838 0.49444237 -0.07239902 -0.71271414 0.011470854 -2.000017 -0.47495726 -0.7166648 -0.24564525 -0.5107979 -0.7810149 -0.02870335 -0.52062213 -0.6319294 0.49070996 -1.296542 -0.6243448 -0.669603 -0.4934159 -0.5442246 -0.5238742 -0.020950226 0.5844193 -0.52809095 0.44778407 3.0406616 0.028643753 0.904368 -0.27304772 -0.45921448 -0.792176 -0.2777918 0.10014915 0.46584427 -0.96567136 -0.56995916 -0.43864354 -0.48579225 -0.0024308946 -0.473675 -0.42212796 -0.52430063 0.13156337 -0.61072457 0.62943614 1.128893 -0.050898895
../OJ_raw_pkl_small/1/1170.pkl,0.5735602 0.29586264 0.6238005 -0.66996866 0.4414533 -0.09044548 -0.6627198 -0.15886043 -1.7246399 -0.3579998 -0.5848681 -0.21702762 -0.54907423 -0.70924497 -0.054979056 -0.478499 -0.75681454 0.5424653 -1.2905049 -0.5495071 -0.57776535 -0.5781551 -0.4669043 -0.47885662 -0.08268175 0.7301538 -0.49133006 0.46635094 2.4344792 -0.10503524 0.81956905 -0.24692969 -0.31024694 -0.65256655 -0.14213343 -0.10288614 0.30838177 -0.6355511 -0.49348056 -0.31070086 -0.32861927 0.08905978 -0.48718342 -0.55342406 -0.35673952 0.19310372 -0.73764294 0.5705367 0.68338215 -0.21337214
../OJ_raw_pkl_small/4/214.pkl,0.50427014 -0.008596627 1.229883 -0.51331073 0.15112014 -0.14224026 -0.37088412 -0.43522072 -1.8324449 0.4867149 -0.6735713 -0.2716018 -0.3782923 -0.8725685 0.74018365 -0.38453493 -0.3878607 1.2340124 -1.4981872 -0.8555428 -0.81694126 -0.43111065 -0.6655811 -0.43031204 -0.11412838 -0.27937117 -0.7067358 0.8881968 0.53914124 0.38765723 0.95390797 -0.2213806 -0.60978144 -0.67110956 -0.25132534 0.11521598 0.1626352 -1.0422701 -0.34180057 -0.14092472 -0.42247775 -0.12403627 -0.4822618 0.05534832 -0.34539506 0.5104385 -0.4658834 0.23517993 1.086954 0.18726075
../OJ_raw_pkl_small/4/655.pkl,0.69087625 0.46053252 0.82170886 -0.70073813 0.7001005 -0.0268265 -0.55871254 -0.42333987 -1.6776141 -0.52276564 -0.621903 -0.05938246 -0.70586324 -0.7540953 0.18551856 -0.48891082 -0.46068585 0.5528216 -1.279754 -0.15707287 -0.73579377 -0.50267154 -0.56167364 -0.44586778 -0.18235202 0.908764 -0.69127524 0.45784935 2.0738592 0.27085513 0.81495976 -0.38153622 -0.43145782 -0.5146018 -0.102505766 0.061551016 0.27624527 -0.44416335 -0.51528686 -0.40936285 -0.3911349 0.1403176 -0.42998493 -0.19345886 -0.14251858 0.22470349 -0.4911218 0.3888772 1.0470387 -0.16817607
../OJ_raw_pkl_small/1/423.pkl,1.3475969 0.5411548 0.912475 -0.6799529 0.49243796 -0.10633741 -0.42900404 0.068191126 -1.7952732 -0.48129186 -0.79811686 -0.3515268 -0.21826297 -0.58550936 0.053537227 -0.49695045 -0.49829522 0.54054826 -1.2784675 -0.86631256 -0.6346925 -0.43449882 -0.6271691 -0.5668979 -0.21213745 0.17124511 -0.5751076 0.30406874 2.1618474 0.03671659 0.72258985 -0.2659178 -0.44164816 -0.48651057 -0.22283942 0.23101102 0.3821887 -0.89906275 -0.5391525 -0.4840194 -0.27621126 -0.18504435 -0.35567087 -0.36468372 -0.3968482 0.18541062 -0.6246707 0.49067995 0.9577122 0.09225677
../OJ_raw_pkl_small/6/2201.pkl,1.6595321 -0.025443362 0.7873369 -0.66083366 0.34173003 -0.09160818 -0.7083265 -0.4019388 -1.738645 -0.44867975 -0.40136853 -0.23016009 -0.23730756 -0.18917066 0.37571338 -0.4155374 -0.022770435 0.7106881 -1.0026113 0.044615004 -0.7526833 -0.27557904 -0.6488319 -0.8387984 -0.3125464 0.15527397 -0.7856211 0.7775259 0.9976467 0.31400797 1.3135666 -0.32587767 -0.11337984 -0.14141008 -0.37958643 0.15112521 0.40513468 -0.91361475 -0.65015715 -0.21206804 -0.419577 -0.32367215 -0.30284947 -0.23041494 -0.2659304 0.32130238 -0.5322002 0.62904745 0.95889425 -0.004660962
../OJ_raw_pkl_small/1/2053.pkl,1.1614956 0.5778702 0.87101114 -0.52254313 0.69959575 -0.03945754 -0.693052 0.34916055 -1.9657111 -0.54032165 -0.6183507 -0.14696155 -0.4280846 -0.8221768 0.033018544 -0.5064903 -0.20024134 0.33445495 -1.1387872 -0.24223736 -0.57581556 -0.468969 -0.47600418 -0.41138 -0.12871695 -0.04659662 -0.558193 0.21928513 1.8395998 -0.21354848 0.37540343 -0.2284556 -0.69780487 -0.63527805 0.11635784 0.02865421 0.6009749 -0.65481424 -0.4568513 -0.42185763 -0.46563148 -0.1200149 -0.5393912 -0.27409774 -0.39626572 0.10096928 -0.53431106 0.5517706 0.54845625 -0.10085197
../OJ_raw_pkl_small/1/227.pkl,0.96641695 0.5104144 0.6549105 -0.813948 0.5855797 -0.120664045 -0.7078876 -0.117406055 -2.0342472 -0.9010259 -0.8209972 -0.26161382 -0.5960359 -0.7805528 -0.28946716 -0.54445595 -0.05218509 0.33243257 -1.5587844 -0.68425107 -0.57735574 -0.5656273 -0.4669854 -0.34484017 0.03319239 0.77483433 -0.6406302 0.3623387 3.0527287 -0.023982577 1.0512413 -0.2468967 -0.39406425 -0.50686723 -0.18356377 0.0643161 0.4481996 -1.049119 -0.54031885 -0.48201948 -0.46296954 0.20806402 -0.41950205 -0.48149276 -0.39261457 0.22519964 -0.7421218 0.547892 0.8891195 -0.13257365
../OJ_raw_pkl_small/1/1544.pkl,0.89819914 0.47758758 0.77241606 -0.50348973 0.24172926 -0.025997639 -0.56970966 0.20447141 -1.773465 -0.40002355 -0.6092406 -0.26899028 -0.47374827 -0.6499643 -0.032995522 -0.43049544 -1.0137575 0.37821102 -1.0873452 -0.5681713 -0.612271 -0.46285146 -0.5055698 -0.6197888 -0.12391756 0.295217 -0.43754303 0.12099483 1.157833 -0.34475935 0.462184 -0.11504661 -0.5276144 -0.6317611 0.109788984 -0.090387926 0.5099633 -0.42767465 -0.31632084 -0.37910256 -0.17551297 -0.010156167 -0.4422133 -0.16437471 -0.27468273 0.14597023 -0.83793896 0.48249382 0.38906604 -0.057983883
../OJ_raw_pkl_small/4/920.pkl,0.12240292 0.39240575 0.6702482 -0.7862931 0.35739088 0.08017221 -0.56308025 -0.58427334 -1.5658562 -0.7554252 -0.6066323 0.08379877 -0.5281232 -0.8333978 0.038261447 -0.45495042 -0.75182515 0.35742527 -1.3232237 -0.58115804 -0.63770366 -0.32881072 -0.5214951 -0.45543072 -0.1568055 0.75948447 -0.5163724 0.35396004 1.97583 0.17801481 0.7000823 -0.26034698 -0.397322 -0.6783637 -0.19052532 0.24726103 0.450568 -0.674661 -0.4688345 -0.43519318 -0.32490447 0.06393402 -0.4044655 -0.29419562 -0.25281644 0.17772199 -0.34936437 0.17587218 0.9081849 0.10791931
../OJ_raw_pkl_small/4/146.pkl,0.39433005 0.31121054 0.8541052 -0.7797082 0.55653906 0.036956582 -0.5166162 -0.5259155 -1.6479108 -0.40342835 -0.6049044 0.076204374 -0.64238185 -0.8657608 0.12744816 -0.47696483 -0.6971173 0.5759197 -1.4147193 -0.30494922 -0.72062504 -0.5793257 -0.5443096 -0.47270074 -0.21472177 0.9295447 -0.58910215 0.5922444 2.3589272 0.18386607 0.75845087 -0.33995742 -0.34822387 -0.6245896 -0.09044274 -0.010599609 0.34204003 -0.47896096 -0.5256111 -0.3807898 -0.4187987 0.20323835 -0.4958523 -0.26214126 -0.17991588 0.3274273 -0.45388514 0.24886207 0.99857885 -0.125441
../OJ_raw_pkl_small/1/1018.pkl,0.45836967 0.5088634 0.44118983 -0.76788694 0.60475755 -0.06799094 -0.60136235 -0.0497248 -1.8522725 -0.83212405 -0.7728921 -0.19604033 -0.6199289 -0.8253639 -0.275622 -0.56513786 -0.38877115 0.33392453 -1.355548 -0.6574394 -0.6130238 -0.61226445 -0.39782718 -0.6126293 0.0409245 1.3830153 -0.52425355 0.17153676 3.289634 0.15867797 1.0364748 -0.3387883 -0.30848944 -0.57848805 -0.22671907 -0.064744025 0.25926968 -0.6625454 -0.5650546 -0.44038048 -0.3851497 0.18913007 -0.5326223 -0.6119703 -0.45459914 0.24498227 -0.9018148 0.44741243 1.0220007 -0.25890929
../OJ_raw_pkl_small/4/659.pkl,0.19631623 0.20219277 0.7354466 -0.71540415 0.5592096 -0.045231037 -0.51897395 -0.4068377 -1.6573714 -0.2874968 -0.56720716 0.042787906 -0.67391056 -0.86385435 0.13572322 -0.4389298 -0.40239906 0.7689506 -1.3168737 -0.43396404 -0.7487994 -0.64194864 -0.46439475 -0.4436605 -0.15993685 0.9630206 -0.6451137 0.5324902 1.5793417 0.07284796 0.8458969 -0.25633273 -0.40624917 -0.56526285 -0.09013819 -0.11200682 0.25109658 -0.43602914 -0.46708107 -0.29341993 -0.42564958 0.20697312 -0.58330834 -0.3087985 -0.061510265 0.37100592 -0.73556787 0.30314073 0.6919507 -0.16215745
../OJ_raw_pkl_small/4/738.pkl,0.91433233 0.74780005 0.9030308 -0.7586016 0.9149619 -0.10721106 -0.4830349 0.0109978 -1.9638854 -0.7475977 -0.73503274 -0.20843485 -0.5097945 -0.8048271 0.043064024 -0.52521694 -0.2351765 0.3902003 -1.4439862 -0.68848646 -0.592558 -0.5337638 -0.50579494 -0.48521352 -0.0884108 0.49601778 -0.7176437 0.3710045 2.6968997 0.23139216 0.7643387 -0.24887821 -0.55084115 -0.56069255 -0.2421154 0.19712365 0.33315796 -1.0142883 -0.51337266 -0.5643755 -0.4894136 0.06646863 -0.51657575 -0.37824452 -0.38898855 0.16809219 -0.41363567 0.3802796 1.4044371 -0.037045125
../OJ_raw_pkl_small/4/596.pkl,0.29571673 0.58139175 0.7314263 -0.9198787 0.73673505 -0.022234349 -0.6319116 -0.6068868 -1.8723541 -0.97743326 -0.49454638 0.4039339 -0.91483516 -0.79303855 -0.20331675 -0.5264757 -0.81503993 0.40346226 -1.5022609 -0.7017117 -0.6638603 -0.68804634 -0.43377456 -0.3785331 -0.010140519 1.9339474 -0.754495 0.591491 3.2131662 0.22376546 1.1227223 -0.3661421 -0.18712041 -0.6354445 -0.34035894 0.0079198675 0.25340065 -0.9368016 -0.5277174 -0.52337915 -0.46243498 0.49469894 -0.5765611 -0.444575 -0.09783842 0.34180325 -0.657193 0.29331443 1.0432138 -0.19551751
../OJ_raw_pkl_small/1/2205.pkl,1.2325631 0.74035406 0.544737 -0.6248418 0.53252614 -0.19924998 -0.62084913 0.041699156 -1.8425239 -0.8263602 -0.5144056 0.12656291 -0.48084334 -0.3564863 -0.15019844 -0.50936645 -0.4434601 0.2552384 -1.042454 -0.6166316 -0.6306932 -0.4461144 -0.538872 -0.7746786 -0.09268318 0.90185827 -0.44107354 0.33077982 2.3184881 0.16009572 0.5297423 -0.36182332 -0.14014892 -0.4474662 -0.27713978 0.078292996 0.24061912 -0.8783043 -0.54512674 -0.5368082 -0.4205494 -0.03646992 -0.41691855 -0.50825125 -0.3230459 0.23804037 -0.712214 0.5987616 1.0357485 -0.1351222
../OJ_raw_pkl_small/4/137.pkl,0.62818825 0.28178346 0.78600836 -0.67494786 0.5039355 -0.09999925 -0.6648664 -0.17862721 -1.7179273 -0.45334905 -0.7614936 0.0146397 -0.6016181 -0.7166529 0.121294096 -0.49477488 -0.7233962 0.4125346 -0.9492945 0.012029972 -0.8142396 -0.2881932 -0.44871557 -0.463089 -0.25064802 0.5723629 -0.5584131 0.4058541 1.1870992 -0.068918414 0.4862716 -0.23763053 -0.4105139 -0.63844645 -0.115136914 0.17348583 0.548398 -0.6059251 -0.4951662 -0.418769 -0.34429157 -0.057174098 -0.44308224 -0.0020074027 -0.48277712 0.22283861 -0.49297395 0.32309705 0.5657974 0.082324326
../OJ_raw_pkl_small/4/194.pkl,0.5966192 0.33260244 0.6899699 -0.6729186 0.75114137 -0.03626212 -0.70378166 -0.44835624 -1.7434458 -0.5753186 -0.49025288 0.06951984 -0.8373889 -0.8245639 -0.14591153 -0.5090285 -0.7350931 0.5629613 -1.2832853 -0.65996534 -0.7469655 -0.5054059 -0.32157287 -0.7623483 -0.122333005 0.98272943 -0.63157296 0.616951 1.5464858 0.042048927 0.9394387 -0.2137221 -0.3868796 -0.64658624 -0.22370256 -0.06360238 0.26459977 -0.31570166 -0.5304587 -0.4080784 -0.4056098 0.2522189 -0.46963254 -0.20846716 -0.043888018 0.5920119 -0.81273043 0.62432307 0.7199182 -0.12703572
../OJ_raw_pkl_small/6/3815.pkl,0.33556974 -0.19787332 0.62128067 -0.5457535 0.33615375 -0.17054817 -0.55869186 -0.22978556 -1.6603433 0.1416234 -0.54166216 -0.07646518 -0.33146942 -0.7490221 0.5893675 -0.45701495 -0.5350529 0.93771666 -1.2455095 -0.29339355 -0.97686726 -0.4952616 -0.59336275 -0.48180652 -0.15014173 0.0628484 -0.617452 0.7676603 0.73740447 -0.043440014 0.68086857 -0.32496384 -0.55645305 -0.28822204 -0.0062698536 -0.12610929 0.2614978 -0.40590602 -0.39052418 -0.11498035 -0.34802198 -0.22994114 -0.5989688 -0.30350223 -0.2462978 0.30089188 -0.6122422 0.24478032 0.41397783 -0.19611247
../OJ_raw_pkl_small/1/1597.pkl,0.7620855 0.5194612 0.68000644 -0.6556937 0.4553093 -0.079303056 -0.5733108 0.049610082 -1.8751874 -0.6088479 -0.6776438 -0.12050142 -0.51145786 -0.7297517 -0.00132866 -0.54245836 -0.69404525 0.4467292 -1.2802434 -0.77748734 -0.6381993 -0.62068844 -0.48249894 -0.62497437 0.033455815 0.8638059 -0.51521707 0.35977772 3.1767614 0.004853932 0.8840222 -0.31556737 -0.35481584 -0.5201173 -0.2499665 0.02330735 0.20180269 -0.70162845 -0.59122664 -0.4119761 -0.3833422 0.07069175 -0.56703264 -0.6405975 -0.32959852 0.16861837 -0.8348654 0.473728 0.8652727 -0.24967034
../OJ_raw_pkl_small/1/1548.pkl,1.0051036 0.28119206 0.6767244 -0.5933791 0.37270516 -0.20099416 -0.6669587 -0.14495459 -1.7544279 -0.41514018 -0.6528526 -0.44649065 -0.5571701 -0.37888008 0.014259421 -0.528846 -0.42253682 0.63831186 -1.4939662 -0.32172486 -0.50457966 -0.44566607 -0.5778397 -0.40611005 -0.05874154 0.67685574 -0.61803937 0.52023846 2.3942518 0.11293344 0.99709785 -0.2921581 -0.6590013 -0.5660132 -0.18148759 -0.031610068 0.2015248 -0.8492684 -0.5468963 -0.21407531 -0.4822465 -0.0023551888 -0.3605226 -0.57827383 -0.03562331 0.044404685 -0.7700918 0.6612256 0.9499845 -0.15509312
../OJ_raw_pkl_small/4/1934.pkl,0.1681456 0.2680192 0.6841031 -0.7041907 0.44056582 -0.019448277 -0.540642 -0.34560248 -1.659134 -0.3855642 -0.6265142 -0.08138081 -0.59052145 -0.8843188 0.14412816 -0.46808916 -0.30577755 0.6344232 -1.3355592 -0.3358502 -0.78779215 -0.5274468 -0.5185199 -0.57844895 -0.06890785 0.69583684 -0.5561134 0.4317779 1.8612651 0.17411362 0.82838124 -0.299122 -0.46582693 -0.5727273 -0.042842932 -0.00261888 0.36416858 -0.42441386 -0.4816627 -0.37174758 -0.39755484 0.11316156 -0.5239215 -0.25967515 -0.24266218 0.3084461 -0.59247744 0.25482312 0.8656393 -0.08155982
../OJ_raw_pkl_small/4/273.pkl,0.11131165 -0.061970226 0.8107002 -0.64171785 0.18655369 -0.07124472 -0.44407618 -0.40290028 -1.0987685 -0.06949058 -0.41485316 -0.02546058 -0.43355963 -0.8657887 0.337348 -0.42878285 -0.6317813 0.788925 -0.916934 -0.48212707 -0.905866 -0.4965703 -0.52583164 -0.34643373 -0.14756131 0.09637819 -0.4455996 0.61785364 0.19426456 0.021524416 0.6254231 -0.146475 -0.14309059 -0.4124649 0.018998533 -0.06489894 0.25831547 -0.13815497 -0.34332657 -0.31254986 -0.07684207 -0.1630917 -0.5728314 -0.10331881 -0.24080913 0.45691916 -0.8326479 0.25492847 0.335317 -0.04987988
../OJ_raw_pkl_small/1/1495.pkl,1.1881247 0.33923644 0.80812347 -0.7163484 0.6766079 -0.06193974 -0.61978936 -0.33378077 -1.6838894 -0.4752718 -0.6149567 -0.2515215 -0.570378 -0.30364004 -0.036921937 -0.5124528 0.051582724 0.6868354 -1.4063725 -0.5237021 -0.48566452 -0.42257005 -0.52182525 -0.5662733 -0.28796813 0.6804068 -0.6482544 0.5896606 2.3265848 0.2745265 1.1280543 -0.3591817 -0.4341053 -0.3793616 -0.21923502 0.07446231 0.24548145 -0.7187691 -0.6171177 -0.2744594 -0.474052 -0.03972698 -0.242897 -0.52303934 0.06118588 0.2335655 -0.7471245 0.73623234 1.0184474 -0.12361461
../OJ_raw_pkl_small/4/766.pkl,0.91266936 0.5587538 1.0623443 -0.68126106 0.55783534 0.037625276 -0.47326854 -0.19689074 -1.7156715 -0.2697301 -0.6707352 -0.15849984 -0.43246996 -0.7887856 0.34927055 -0.4628649 -0.7141353 0.60157514 -1.379084 -0.6574645 -0.6266152 -0.42960697 -0.5477203 -0.52494913 -0.21535772 0.15681846 -0.6503032 0.48351717 1.912517 0.15556166 0.63610715 -0.19064786 -0.4047264 -0.6748308 -0.22605747 0.23473038 0.3129032 -0.69154286 -0.51887345 -0.3972041 -0.39700526 -0.08152168 -0.49029237 -0.17250349 -0.33591974 0.18964538 -0.3659095 0.33021146 1.1625208 0.11704237
../OJ_raw_pkl_small/6/60.pkl,0.59221953 0.053019408 0.61610013 -0.61156046 0.018963624 0.047770537 -0.50336236 -0.35288772 -1.4705979 -0.1330047 -0.68684876 -0.074538246 -0.2687597 -0.6983528 0.2283012 -0.43564308 -0.49092942 0.67222744 -1.2590253 -0.63326067 -0.74965954 -0.13289282 -0.54776704 -0.48343495 -0.2865731 0.011706317 -0.36632076 0.3508679 1.169361 -0.06505812 0.6437341 -0.2205064 -0.54414487 -0.64865327 -0.12661693 0.26268113 0.51493883 -0.39444128 -0.45467207 -0.25471896 -0.25838548 -0.26856238 -0.2890087 -0.39502898 -0.28188345 0.18853983 -0.6249805 0.35445508 0.5054583 0.2431518
../OJ_raw_pkl_small/4/984.pkl,0.63668174 0.37363863 0.803128 -0.79734594 0.3864932 0.08803602 -0.6056571 -0.4142528 -1.8378551 -0.7778389 -0.6108011 0.2175462 -0.52814716 -0.7160205 0.058028363 -0.44684774 -0.8715538 0.37185934 -1.3933628 -0.6005469 -0.6903599 -0.4793834 -0.50896525 -0.41868833 -0.17862889 0.79331946 -0.55637014 0.40056685 2.0420609 0.15916856 0.8051014 -0.24428245 -0.16255474 -0.6661577 -0.26521653 0.17938091 0.5209282 -0.98641133 -0.4489317 -0.49108323 -0.32191524 0.045018587 -0.47685096 -0.23062195 -0.30141595 0.27204594 -0.482845 0.24436764 1.0599645 0.07201051
../OJ_raw_pkl_small/1/1589.pkl,1.2881463 0.510534 1.1200712 -0.5485643 0.29466447 -0.09304119 -0.6893904 0.1209307 -1.8972311 -0.27453804 -0.544993 -0.1331703 -0.54780895 -0.6820522 0.07832283 -0.4978901 -0.71567583 0.53549093 -1.2711473 -0.36379892 -0.56588835 -0.441264 -0.6409098 -0.31032205 -0.17226413 -0.20669834 -0.56565154 0.39054102 1.6919355 -0.26388475 0.62453645 -0.13052677 -0.48923168 -0.6999656 -0.041342404 -0.0264061 0.41956192 -0.71024954 -0.48746765 -0.3008262 -0.36709917 -0.07035881 -0.46111304 -0.19967279 -0.23396003 0.14437124 -0.6452848 0.7941405 0.6690185 -0.070261106
../OJ_raw_pkl_small/1/2229.pkl,0.62004197 0.3394466 0.7018743 -0.6892531 0.321442 -0.045383863 -0.51426816 -0.160822 -1.8778303 -0.23541737 -0.85570145 -0.33101335 -0.4744229 -0.8013819 0.10176926 -0.47786236 -0.5656612 0.60010445 -1.4997096 -0.7548077 -0.5826222 -0.49314034 -0.5764018 -0.53659695 0.03610516 0.30968145 -0.48544797 0.46445563 2.6871486 0.12383052 0.9154715 -0.19714382 -0.46362528 -0.61585116 -0.26753697 0.14939512 0.29147413 -1.0712373 -0.5441115 -0.35968807 -0.43304372 0.061791103 -0.47167575 -0.48788023 -0.5419589 0.21420246 -0.45288527 0.3943887 1.0748627 -0.0743718
../OJ_raw_pkl_small/1/919.pkl,0.9118407 0.5417912 0.6712852 -0.6984782 0.69237787 -0.1058824 -0.68483716 -0.15490712 -1.989458 -0.54508334 -0.7544521 -0.14178728 -0.63216025 -0.8342895 -0.15300496 -0.5670927 -0.63203216 0.44316545 -1.5052166 -0.63478255 -0.6354752 -0.5843464 -0.47132495 -0.4172688 0.04890753 0.9952394 -0.60598433 0.5304941 3.1836429 0.06524524 0.8760667 -0.27229342 -0.40863836 -0.7074111 -0.31672522 0.03371075 0.23615712 -0.9583606 -0.5968032 -0.41799685 -0.5168378 0.26761228 -0.51680416 -0.52562 -0.5186618 0.22434111 -0.62340146 0.4890421 1.0832247 -0.17759754
../OJ_raw_pkl_small/1/388.pkl,0.87871253 0.39688715 0.7554367 -0.7254655 0.55743784 -0.063220456 -0.49229845 -0.0006876644 -1.9097514 -0.62360835 -0.6955157 -0.08523872 -0.49837592 -0.6945802 -0.011739027 -0.47779065 -0.14824589 0.32463115 -1.3188149 -0.46796092 -0.74461806 -0.43520272 -0.35795122 -0.39435712 -0.02157095 0.7179185 -0.5705602 0.29110235 1.5991517 -0.1474508 0.6514178 -0.15514387 -0.29852903 -0.49023718 -0.09977577 0.16156745 0.3720353 -0.9175776 -0.34808835 -0.54195875 -0.31217745 0.09284517 -0.47919548 0.0042331517 -0.48076403 0.06491502 -0.74300086 0.32867578 0.7113013 0.007741849
../OJ_raw_pkl_small/6/659.pkl,1.3545505 -0.10008036 1.0526423 -0.59743404 0.51130795 -0.2000975 -0.3410781 -0.466838 -1.5638998 0.6857544 -0.53736454 -0.41308403 -0.34112653 -0.3764519 0.7300648 -0.4447443 0.18132247 1.5375441 -1.3889171 -0.129186 -0.7948857 -0.526712 -0.56995285 -0.7241474 -0.26520965 0.18026543 -0.80737066 1.0859108 1.1548326 0.1635673 1.5648007 -0.34643748 -0.56433487 -0.15757929 -0.27560988 -0.1058296 -0.045003016 -0.4596923 -0.6058854 0.002739853 -0.5707655 -0.16450475 -0.47405052 -0.27423662 -0.28616127 0.3433695 -0.70423484 0.41443703 0.9018804 -0.11411976
../OJ_raw_pkl_small/4/1031.pkl,0.31316903 0.42889047 0.9447112 -0.78906834 0.5760107 -0.06417437 -0.4094889 -0.5414993 -1.6590142 -0.32255617 -0.4750176 0.32677734 -0.85460514 -0.83145946 0.14559644 -0.49360436 -0.6933455 0.72218174 -1.3399678 -0.3722224 -0.80988663 -0.7098441 -0.490451 -0.40149638 -0.10088182 1.4046401 -0.68336827 0.69661623 2.0849712 0.13655278 0.98225075 -0.36523616 -0.26422283 -0.53695333 -0.14338705 -0.11212377 0.12612307 -0.28174725 -0.48331782 -0.3927878 -0.4317604 0.43979955 -0.6251076 -0.2087862 -0.009597108 0.4274609 -0.7052763 0.19133902 0.85069084 -0.2734427
../OJ_raw_pkl_small/1/1635.pkl,1.1452905 0.50524914 1.0664387 -0.5785111 0.44459733 -0.063303046 -0.6062305 0.2122417 -1.8157752 -0.27599633 -0.7082569 -0.1985695 -0.50576806 -0.7367297 0.12612426 -0.5304866 -0.757426 0.5295911 -1.3004882 -0.49017468 -0.593269 -0.41921696 -0.52964354 -0.44234204 -0.29510802 -0.046678707 -0.50307596 0.28643075 2.192496 -0.22474004 0.6239492 -0.20610341 -0.6376797 -0.7236592 0.054381948 0.0634907 0.56235796 -0.5735886 -0.44897556 -0.31191397 -0.3945391 -0.24139777 -0.44484288 -0.23612463 -0.27422512 0.12758143 -0.60384554 0.6432136 0.5552523 -0.040781543
../OJ_raw_pkl_small/1/1724.pkl,1.5309496 0.52068025 0.83685046 -0.6225556 0.42093864 -0.1236234 -0.6365982 0.049353667 -1.87693 -0.83407056 -0.6353241 -0.2706671 -0.6161968 -0.3295728 -0.17930216 -0.45475808 -0.38054776 0.27078414 -1.32187 -0.5853962 -0.65146905 -0.41934273 -0.5636472 -0.6043749 -0.051830262 0.36513105 -0.6305278 0.31417075 1.9971387 0.07396639 0.7918718 -0.33316168 -0.6368066 -0.4137153 -0.22113918 0.16885361 0.49485964 -1.016985 -0.52277064 -0.46346188 -0.45597488 -0.040769916 -0.35801554 -0.40179524 -0.06858025 0.032729995 -0.61306643 0.6017559 0.7663652 -0.11935235
../OJ_raw_pkl_small/4/1302.pkl,0.55236983 0.31816375 0.83161277 -0.7357695 0.36639297 0.042857725 -0.554557 -0.42993334 -1.7003541 -0.42977828 -0.58743036 0.25707936 -0.6938803 -0.8226882 0.10431653 -0.46446526 -0.7167703 0.5918927 -1.2477729 -0.33972007 -0.79489183 -0.525822 -0.5108417 -0.5446716 -0.20645352 1.1410135 -0.56031674 0.38510975 1.2863996 0.12912205 0.6661012 -0.3349253 -0.24174608 -0.6290826 -0.05915049 -0.058916055 0.29516068 -0.2667084 -0.42208117 -0.41722047 -0.3317206 0.20619188 -0.5225622 -0.085956305 -0.15194702 0.4376751 -0.7714549 0.37710902 0.59496343 -0.07910196
../OJ_raw_pkl_small/4/449.pkl,0.57285315 0.18481544 0.9788177 -0.63732576 0.293275 0.029136114 -0.6001937 -0.42375606 -1.6687478 -0.22595108 -0.34555408 0.24993986 -0.63272697 -0.8520742 0.13601556 -0.48441815 -0.7125476 0.6991784 -1.1819249 -0.60934097 -0.7977696 -0.4632591 -0.4461678 -0.5594109 -0.2355018 0.48894662 -0.502215 0.6696179 1.316401 0.019387376 0.78989667 -0.23517185 -0.32949096 -0.69992554 -0.102749206 -0.07161006 0.3362242 -0.26348922 -0.50731874 -0.35103434 -0.37378058 0.031054975 -0.45048597 -0.10931628 -0.10294249 0.6240709 -0.7671866 0.49899778 0.7106022 -0.041898277
../OJ_raw_pkl_small/1/1827.pkl,0.9882922 0.30064797 0.8139042 -0.72997737 0.4020274 -0.112423755 -0.6166344 -0.3378629 -1.6790528 -0.4987164 -0.81864274 -0.5138158 -0.51808864 -0.7783223 -0.11340309 -0.447647 -0.4780027 0.6077867 -1.5832382 -0.5191415 -0.115011305 -0.45034868 -0.6606622 -0.31860635 -0.25742075 0.22559556 -0.70582473 0.5552751 1.6018829 -0.016762167 0.9515577 -0.18950914 -0.63249093 -0.40206125 -0.27644795 0.19651227 0.477431 -1.0794047 -0.462023 -0.15984923 -0.4449667 0.026826754 -0.26642928 -0.29470226 -0.2945662 0.10256276 -0.49699143 0.6140325 0.5299736 -0.0051678726
../OJ_raw_pkl_small/4/151.pkl,0.12577198 0.04536404 0.8680504 -0.6342226 0.41623577 -0.03112874 -0.45357004 -0.45826265 -1.5535473 0.08386239 -0.65252477 -0.058546204 -0.6230442 -0.88923234 0.48715076 -0.4505575 -0.541687 1.030462 -1.2603251 -0.57684004 -0.8343488 -0.49393457 -0.50979584 -0.5899807 -0.29735905 0.66914016 -0.58761096 0.6790049 1.0597491 0.22986391 0.84231627 -0.24912298 -0.38215193 -0.6101478 -0.121986166 -0.0430985 0.22555436 -0.28565627 -0.524955 -0.17830187 -0.38196096 0.05193797 -0.5269246 -0.09673486 -0.092206255 0.5369469 -0.7479691 0.26374757 0.6949271 -0.040188376
../OJ_raw_pkl_small/1/453.pkl,1.4332842 0.5072673 1.062501 -0.5626179 0.79123807 -0.08672633 -0.5483242 0.42638132 -2.064889 -0.16369934 -0.6667685 -0.34150073 -0.3799189 -0.7821937 0.24419615 -0.42199934 -0.122198895 0.61567676 -1.180646 -0.5419035 -0.7638332 -0.5703353 -0.48493704 -0.3983147 0.0048482614 -0.08946275 -0.64009684 0.37950504 1.7160671 -0.25016764 0.675683 -0.17660195 -0.6351116 -0.5639209 -0.14585488 0.053854194 0.28027222 -1.0444245 -0.41244462 -0.40628812 -0.4612917 -0.114614986 -0.6280105 -0.09993516 -0.555505 0.013730707 -0.57198864 0.49246877 0.7717146 -0.062439654
../OJ_raw_pkl_small/4/288.pkl,0.030721568 0.035738345 0.60482365 -0.62729406 0.059470072 0.0037845252 -0.5869321 -0.49901304 -1.6055641 -0.24646537 -0.4848764 0.1309053 -0.5892383 -0.86710477 0.10259271 -0.47066462 -0.7074283 0.7148662 -1.3478678 -0.7082758 -0.80809724 -0.4708077 -0.41268665 -0.36483127 -0.054655127 0.7809101 -0.46574095 0.53369683 1.8910947 0.13647397 0.9009187 -0.2897755 -0.4126798 -0.67375296 -0.12765023 -0.03179873 0.26196373 -0.31231248 -0.46917075 -0.15263912 -0.37981635 0.104622714 -0.47359595 -0.3535371 -0.19199198 0.38354608 -0.7174264 0.281923 0.7936666 -0.08235166
../OJ_raw_pkl_small/6/3397.pkl,0.109412126 -0.099481404 0.6802105 -0.52705896 -0.07207646 -0.080430485 -0.60283947 -0.36535016 -1.6155227 -0.11221409 -0.1095226 0.07844689 -0.6970213 -0.80507016 0.20561646 -0.5067371 -0.7240584 0.7977355 -1.4428797 -0.11117127 -0.8276006 -0.4804178 -0.41837797 -0.23741475 -0.13810065 0.32588345 -0.5122005 0.6342646 0.94587094 -0.07954158 0.7103787 -0.3582845 -0.6573975 -0.556416 0.12422484 -0.16087939 0.2713435 -0.0047750883 -0.40057883 -0.012373547 -0.38682872 -0.022341102 -0.5528721 -0.20811689 -0.1254457 0.3734477 -0.6940361 0.31177673 0.4367448 -0.19652106
../OJ_raw_pkl_small/1/1530.pkl,1.2212292 0.62727815 0.9410239 -0.5444303 0.568746 -0.14451376 -0.5735224 0.38437992 -1.9453139 -0.44055584 -0.57868534 -0.23263451 -0.43424127 -0.7343693 0.036042158 -0.55001736 -0.77006024 0.4201344 -1.3154624 -0.36189222 -0.6769643 -0.62512 -0.50818485 -0.39802694 -0.07222797 0.28750604 -0.63297665 0.33384597 2.5512545 -0.19669932 0.64170605 -0.29840025 -0.69693923 -0.6578858 -0.020977892 -0.07564963 0.42938715 -0.6392399 -0.5199024 -0.37901294 -0.4324944 -0.107935 -0.58606374 -0.36522377 -0.37927192 0.06500088 -0.6457242 0.5249921 0.81230783 -0.21517234
../OJ_raw_pkl_small/1/413.pkl,1.6392004 0.5678025 0.9322265 -0.55598885 0.33859584 -0.08691625 -0.7377108 0.01753991 -1.791377 -0.72909796 -0.60137916 -0.23417003 -0.3650682 -0.27416635 -0.14865805 -0.45899603 -0.44874963 0.39953238 -1.340546 -0.4297345 -0.49187613 -0.34878594 -0.6860653 -0.503988 -0.20291804 0.18410777 -0.5475006 0.4014303 1.9928952 0.013740818 0.9566432 -0.32847372 -0.45353678 -0.48832342 -0.157456 0.10632016 0.48504797 -1.0429797 -0.5730278 -0.3562382 -0.36968532 -0.1106744 -0.18630244 -0.3268283 -0.04829069 0.10506252 -0.6229176 0.8446476 0.90144646 0.020848762
../OJ_raw_pkl_small/4/673.pkl,0.13741541 0.19867156 0.76570195 -0.75641483 0.46557698 -5.0541013e-05 -0.44897655 -0.47919163 -1.6088414 -0.4186333 -0.61809754 0.069270976 -0.71507293 -0.8932561 0.058127295 -0.45197272 -0.33857903 0.63092065 -1.3174318 -0.3985882 -0.85961515 -0.59031963 -0.46165127 -0.5010261 -0.17532897 1.1379946 -0.59518385 0.4217127 1.4361856 0.117209785 0.77962875 -0.33216965 -0.46633816 -0.51715106 -0.054884586 -0.07105193 0.28610644 -0.15113404 -0.38426906 -0.3824866 -0.3602256 0.23873848 -0.51600283 -0.13518381 0.008603312 0.41630518 -0.74744 0.1849736 0.62364715 -0.13389711
../OJ_raw_pkl_small/6/1381.pkl,0.3606559 -0.1391896 0.37620643 -0.60746014 0.025567383 -0.058742847 -0.63061947 -0.18516375 -1.903915 -0.64442194 -0.6658006 0.070926 -0.4907824 -0.61387604 -0.021789063 -0.4383325 -0.5632347 0.38257024 -1.4140146 -0.3399599 -0.90983796 -0.35645634 -0.5100199 -0.2199951 0.009301169 0.4891097 -0.61253643 0.55451155 0.60181475 0.23204659 0.523065 -0.26339772 -0.50576293 -0.0937644 -0.27561268 0.19678976 0.3872106 -1.1051472 -0.19367559 -0.421996 -0.28282303 -0.12093636 -0.4996195 -0.26937094 -0.42420077 0.33935675 -0.5718544 0.102830105 0.52925354 -0.024222527
../OJ_raw_pkl_small/1/2164.pkl,0.60898095 0.37623882 0.657685 -0.6043087 0.39061117 -0.16582756 -0.45133907 0.018876214 -1.707901 -0.2814954 -0.47924322 -0.26828852 -0.32829747 -0.7840947 0.055287994 -0.47706124 -0.7363201 0.62444234 -1.2062917 -0.3868583 -0.4609119 -0.48180902 -0.5709641 -0.2685204 -0.06607364 0.38254082 -0.40798122 0.38913968 2.0118036 -0.08417081 0.83029044 -0.26439545 -0.57178706 -0.62091905 -0.15498409 -0.016569443 0.1912504 -0.7091716 -0.5106848 -0.28340247 -0.34800616 -0.00088811707 -0.44768673 -0.4556222 -0.31345907 0.044597156 -0.6644459 0.49178928 0.8222341 -0.10399058
../OJ_raw_pkl_small/1/1150.pkl,1.33303 0.16273186 0.65532595 -0.6420089 0.51425207 -0.2156166 -0.5898142 -0.20732428 -1.7590348 -0.34177238 -0.67068577 -0.6119202 -0.496869 -0.24122873 -0.015040472 -0.54912424 -0.29906002 0.78709364 -1.6487023 -0.11971271 -0.60292244 -0.52052605 -0.51400024 -0.451205 -0.09798308 0.5900513 -0.7761847 0.7221195 2.4352093 0.06712355 1.3329157 -0.35014307 -0.681426 -0.26498502 -0.2453842 0.08033908 0.1891381 -0.8221892 -0.556989 -0.16826838 -0.5249143 -0.093957946 -0.27749735 -0.64063174 -0.072339535 0.077381626 -0.7033931 0.5653537 0.9096822 -0.16982386
../OJ_raw_pkl_small/1/773.pkl,0.8896878 0.47448954 0.8719933 -0.6581758 0.68997324 -0.11626437 -0.6308939 -0.071790785 -1.8473972 -0.43606728 -0.7174079 -0.38243985 -0.57279944 -0.78894925 -0.06027281 -0.48909143 -0.24452741 0.46571222 -1.4100498 -0.7544288 -0.49281666 -0.4773548 -0.55100197 -0.095300786 -0.032505523 0.40937304 -0.6413695 0.5009545 2.3782563 0.1261688 0.7807933 -0.20108797 -0.61565065 -0.64229095 -0.261565 0.12728977 0.09898008 -1.1226723 -0.45118254 -0.43469942 -0.48380715 0.093621746 -0.4884798 -0.32817405 -0.28945035 0.070400156 -0.55245817 0.6489119 1.0022515 -0.08241704
../OJ_raw_pkl_small/1/1681.pkl,0.9951852 0.44472012 0.7849605 -0.61084086 0.67365724 -0.092732735 -0.5974241 0.22686012 -1.8953246 -0.4564093 -0.6869141 -0.42694739 -0.26259664 -0.79638267 0.19429061 -0.48974466 -0.026427519 0.397994 -1.2780058 -0.24298953 -0.63742846 -0.3489058 -0.47346738 -0.38972634 -0.0813852 -0.23797804 -0.5254441 0.2965423 1.5824815 -0.18282531 0.59278786 -0.12378822 -0.69399434 -0.5606064 0.052463833 0.15905224 0.4935745 -0.9860043 -0.48258832 -0.43032163 -0.44257668 -0.13492721 -0.47983253 -0.123623066 -0.5654526 -0.028114565 -0.47301233 0.39065677 0.662908 0.0482375
../OJ_raw_pkl_small/1/1764.pkl,1.4218597 0.60828996 0.8707039 -0.59866816 0.39346337 -0.09626168 -0.75339943 0.00879613 -1.956978 -0.7092471 -0.63959306 -0.124816135 -0.6574007 -0.29885754 -0.20716648 -0.5113293 -0.48503146 0.33178976 -1.4737589 -0.4357475 -0.6213754 -0.5378589 -0.5520497 -0.35590392 -0.0143841095 0.6715335 -0.62913686 0.41211534 2.4035258 0.16030644 0.93902385 -0.28959125 -0.47338793 -0.46352032 -0.29524887 0.13267015 0.30897534 -1.0981331 -0.5168691 -0.36894813 -0.45211396 -0.028671587 -0.3425085 -0.4952138 -0.09486518 0.0586813 -0.5514469 0.6255988 1.1195077 -0.13243622
../OJ_raw_pkl_small/1/2083.pkl,0.66859406 0.37396973 0.9753206 -0.5574081 0.41483378 -0.11011671 -0.46493694 -0.16289642 -1.3235395 -0.02264971 -0.43034244 -0.15742104 -0.54286253 -0.8033903 0.23425998 -0.48909774 -0.6780321 0.7104164 -1.073042 0.038420133 -0.5103689 -0.44423056 -0.5001665 -0.4692495 -0.19114855 0.3235652 -0.5208407 0.4493672 1.8063055 -0.2729425 0.6941759 -0.21001326 -0.6240794 -0.6652696 0.0454605 -0.07109409 0.23272525 -0.10162249 -0.5102965 -0.2497435 -0.46813053 -0.030272905 -0.49631554 -0.045257207 -0.17880657 0.07519544 -0.5917582 0.5203716 0.47625157 -0.14923628
../OJ_raw_pkl_small/4/1065.pkl,1.0581791 0.75777113 1.1124004 -0.6839148 0.67381704 -0.116027325 -0.6198362 -0.28123873 -1.8608462 -0.46344155 -0.5562417 -0.22199598 -0.7762631 -0.67862576 0.0885218 -0.48396906 -0.5248035 0.58059055 -1.3840265 -0.5482733 -0.65473133 -0.56563705 -0.48189324 -0.33543578 -0.14235255 0.7788146 -0.78801835 0.52251357 2.2164183 0.33706042 1.0724558 -0.26554042 -0.6090645 -0.69532496 -0.3307763 0.15499237 0.19648483 -0.8836474 -0.49639744 -0.46019912 -0.49164206 0.07824932 -0.46133757 0.06906535 -0.22465672 0.2715623 -0.39832714 0.6129146 1.5631341 -0.05315698
../OJ_raw_pkl_small/1/1613.pkl,1.3985603 0.54500943 1.0534675 -0.5734309 0.3890343 -0.13617134 -0.5577394 0.18052533 -1.83964 -0.34820634 -0.72985095 -0.25888774 -0.6117674 -0.5513676 0.01589358 -0.49546567 -0.6634025 0.42579976 -1.2010924 -0.25695422 -0.682875 -0.54696715 -0.52997786 -0.24918553 -0.16010071 0.2301397 -0.6048321 0.2590868 1.5681669 -0.26187268 0.5557351 -0.13259904 -0.59434694 -0.4956583 0.011920494 0.0022728452 0.391513 -0.6451676 -0.38274032 -0.42338228 -0.32110506 0.08745758 -0.40082407 -0.07618713 -0.29234475 0.01630873 -0.7650081 0.5096475 0.6637508 -0.12208058
../OJ_raw_pkl_small/6/2144.pkl,1.3343854 0.41915232 1.149889 -0.509402 0.5058174 -0.1473613 -0.46172407 -0.02277715 -1.8208444 0.37818366 -0.5569059 -0.2605624 -0.22746603 -0.77143604 0.6431258 -0.4079096 -0.5429704 1.001186 -1.3458799 -0.69621056 -0.7289444 -0.44503224 -0.54959315 -0.6093601 -0.22346173 -0.53794694 -0.690185 0.6995132 1.6628975 0.03248642 0.9136979 -0.21644902 -0.600922 -0.75002897 -0.27844867 0.11300571 0.26256287 -0.9315146 -0.5633678 -0.20586458 -0.5407529 -0.29835823 -0.5213149 -0.011632187 -0.5192581 0.13911627 -0.30376795 0.43982485 1.2324659 0.056233298
../OJ_raw_pkl_small/1/1581.pkl,0.6342743 0.5013524 0.7975188 -0.70168185 0.4734394 -0.04766007 -0.5801346 -0.18920708 -1.8596117 -0.5127002 -0.72573096 0.008580866 -0.7491619 -0.85099036 -0.114741586 -0.5517441 -0.61587334 0.5615289 -1.4778341 -0.72221106 -0.58515996 -0.6079379 -0.47247648 -0.42104623 -0.011942181 0.94870895 -0.5360859 0.4080977 3.2590582 0.07081722 1.05883 -0.2645126 -0.36715022 -0.7089045 -0.21329969 -0.03700424 0.25520328 -0.68329906 -0.5766993 -0.35343552 -0.45576212 0.16286004 -0.52965266 -0.5568132 -0.3102281 0.2723457 -0.8469281 0.4985574 0.96391964 -0.2227691
../OJ_raw_pkl_small/4/217.pkl,0.25328735 0.28228414 0.7744868 -0.7360531 0.3792524 -0.046669215 -0.54104954 -0.4918574 -1.6669135 -0.38713437 -0.6313816 -0.07083682 -0.6540464 -0.90364915 0.08106672 -0.47765085 -0.57560205 0.6966092 -1.3760881 -0.41704342 -0.7121793 -0.5458282 -0.55338484 -0.5339722 -0.13406067 0.8902618 -0.58254915 0.43409318 1.9913142 0.23108757 0.9341357 -0.34564131 -0.4834435 -0.6568677 -0.1108669 -0.039485108 0.32099983 -0.42039347 -0.4598682 -0.34381473 -0.39794093 0.1656718 -0.47410563 -0.23318468 -0.16214615 0.41985905 -0.60927576 0.4256679 0.9256628 -0.08780211
../OJ_raw_pkl_small/6/2178.pkl,1.0840658 0.03152639 0.9731233 -0.5647432 0.4969761 -0.09928642 -0.36590022 -0.47508714 -1.7404058 0.46299115 -0.6097809 0.031123413 -0.29582396 -0.80690295 0.76235014 -0.43739045 -0.32857627 1.1948497 -1.2712957 -0.5606588 -0.7927999 -0.52131164 -0.609687 -0.73353595 -0.13838443 0.046307847 -0.82688504 1.0451372 1.4655553 0.16675287 1.055373 -0.2922809 -0.26517072 -0.44424695 -0.38204944 0.08469283 0.0358741 -0.9890935 -0.5877552 -0.23666593 -0.57637435 -0.10310556 -0.6032172 -0.0623806 -0.4684822 0.46263942 -0.46154752 0.26677167 1.0065429 -0.044369984
../OJ_raw_pkl_small/4/538.pkl,0.79818 0.33332813 0.8828545 -0.72220695 0.5274403 -0.12814623 -0.6003368 -0.32682237 -1.8428551 -0.20543747 -0.65575075 -0.14239302 -0.35804984 -0.74176145 0.20343284 -0.4310802 -0.45391697 0.7349889 -1.2897434 -0.571752 -0.6826099 -0.42212784 -0.590369 -0.39951146 -0.20264979 0.32153586 -0.6707636 0.57881415 1.9249309 0.12985192 0.8720021 -0.2658805 -0.43035734 -0.6452278 -0.30901402 0.1487987 0.37574336 -0.99980134 -0.49036044 -0.3417557 -0.44192538 -0.05872283 -0.42953864 -0.33268675 -0.32624272 0.2179378 -0.4398339 0.59913665 0.9831902 0.08230305
../OJ_raw_pkl_small/4/1665.pkl,-0.0015805819 0.05319792 0.5842264 -0.7824958 0.5556475 0.055606447 -0.551832 -0.5487538 -1.5837871 -0.6173715 -0.5557908 0.17418545 -0.73134816 -0.8705509 -0.08067662 -0.42351568 -0.48684865 0.51626104 -1.3598408 -0.51945907 -0.80997556 -0.6416628 -0.25972575 -0.4631517 -0.13851339 1.2768807 -0.530983 0.4390002 1.7830393 0.13686343 1.0455762 -0.24196869 -0.2132994 -0.51198846 -0.10920068 -0.12466452 0.3987314 -0.50861293 -0.4809673 -0.40028176 -0.35887367 0.3067084 -0.586443 -0.24698038 -0.065645315 0.4255776 -0.93223 0.15289308 0.6753191 -0.19423594
